tree
version=v4
num_class=1
num_tree_per_iteration=1
label_index=0
max_feature_idx=16
objective=quantile
feature_names=wday month snap is_event sell_price price_rel lag_28 lag_35 lag_42 lag_49 rmean_28_7 rmean_28_28 rstd_28_7 rstd_28_28 item_id store_id dept_id
feature_infos=[1:7] [1:12] [0:1] [0:1] [0.05000000074505806:4.9800000190734863] [0.25688073039054871:1.6000000238418579] [0:648] [0:648] [0:648] [0:648] [0:304.85714721679688] [0:225.07142639160156] [0:241.58622741699219] [0:131.72796630859375] -1:4:13:44:7:10:18:27:39:23:38:42:12:34:2:19:35:20:37:9:48:15:5:28:32:30:6:14:47:26:40:36:1:8:24:31:43:29:22:46:3:45:25:33:0:11:49:21:17:41:16 -1:1:0:2 -1:2:1:0:3:4
tree_sizes=5387 5676 5669 5760 5704 5702 5707 5688 5686 5762 5759 5717 5782 5707 5701 5791 5752 5718 5699 5728 5772 5763 5747 5832 5811 5867 5862 5749 5819 5785 5722 5838 5785 5878 5749 5915 5842 5880 5855 5844 5894 5860 5795 5837 5884 5839 5815 5837 5944 5837 5880 5836 5913 5853 5765 5869 5864 5852 5840 5823 5880 5833 5826 5827 5851 5986 5884 5994 5856 5965 5886 5839 5905 5850 5824 5875 5810 5948 5996 5858 5918 5924 5798 5922 5897 5952 5811 5820 5808 5821 5844 5961 5823 5689 5820 5881 5855 5745 5735 5795 5770 5851 5801 5776 5837 5833 5769 5742 5859 5804 5879 5804 5874 5840 5838 5742 5831 5773 5793 5679 5862 5805 5794 5842 5768 5752 5810 5769 5791 5704 5733 5734 5736 5791 5698 5701 5653 5748 5685 5689 5735 5880 5682 5776 5787 5771 5743 5689 5731 5802 5692 5736 5707 5689 5771 5707 5733 5753 5737 5701 5673 5794 5753 5894 5748 5651 5649 5570 5750 5774 5615 5701 5743 5823 5656 5691 5702 5650 5737 5771 5586 5601 5596 5588 5662 5692 5629 5644 5678 5701 5677 5656 5684 5606 5674 5596 5629 5711 5680 5697 5732 5667 5684 5569 5582 5677 5609 5604 5555 5563 5642 5680 5635 5643 5669 5674 5758 5777 5704 5632 5609 5542 5560 5561 5739 5599 5647 5617 5694 5721 5729 5676 5716 5643 5668 5633 5720 5562 5580 5619 5585 5766 5532 5790 5778 5763 5655 5630 5580 5646 5645 5675 5672 5665 5853 5717 5683 5609 5552 5637 5762 5577 5834 5557 5636 5588 5579 5587 5727 5626 5612 5723 5629 5581 5601 5630 5733 5616 5606 5784 5794 5591 5583 5546 5567 5553 5641 5767 5621 5770 5704 5603 5621 5715 5671 5636 5757 5591 5633 5702 5645 5589 5603 5668 5793 5663 5735 5649 5640 5590 5641 5590 5732 5710 5621 5672 5681 5643 5736 5618 5729 5666 5673 5623 5659 5653 5722 5810 5667 5643 5694 5694 5672 5702 5782 5785 5739 5624 5627 5710 5685 5780 5614 5646 5633 5630 5786 5690 5699 5601 5730 5840 5710 5644 5728 5610 5755 5605 5766 5668 5685 5763 5681 5645 5707 5663 5651 5777 5783 5732 5638 5723 5676 5686 5615 5710 5843 5747 5696 5861 5719 5596 5631 5551 5578 5597 5725 5694 5646 5680 5648 5619 5678 5585 5711 5589 5629 5615 5703 5681

Tree=0
num_leaves=63
num_cat=20
split_feature=10 11 14 0 14 9 13 14 10 0 14 0 14 0 11 1 13 10 10 13 0 8 14 10 14 5 14 4 15 13 9 15 14 10 14 14 14 15 1 1 4 8 1 0 4 11 8 5 15 14 14 4 10 11 14 4 11 9 12 14 0 11
split_gain=6690.51 784.572 764.817 351.269 154.096 138.911 102.341 85.7586 84.6793 82.6762 81.8137 57.5848 50.8898 43.1613 37.1076 36.3941 42.3074 28.054 27.8537 25.7675 24.4702 24.0049 21.3099 18.4873 16.9276 16.3218 16.4553 32.6292 41.2723 15.8738 14.4669 13.4433 13.5792 13.2784 12.4076 11.9081 11.5686 11.5494 11.3808 10.8085 21.0644 10.6619 10.6101 10.3407 10.1821 10.0673 9.70438 9.42874 9.15709 9.14419 8.48337 8.42719 8.36833 8.33166 7.86727 7.84499 7.54251 7.53971 8.44908 7.4475 7.22112 7.09702
threshold=30.214285850524906 18.803571701049808 0 2.5000000000000004 1 39.500000000000007 7.3103444576263437 2 39.214284896850593 2.5000000000000004 3 2.5000000000000004 4 2.5000000000000004 25.196428298950199 7.5000000000000009 29.124470710754398 49.928571701049812 24.071428298950199 15.292280197143556 2.5000000000000004 38.500000000000007 5 22.214285850524906 6 0.96197178959846508 7 1.2649999856948855 8 20.217991828918461 15.500000000000002 9 10 24.357143402099613 11 12 13 14 2.5000000000000004 11.500000000000002 1.4650000333786013 34.500000000000007 8.5000000000000018 6.5000000000000009 1.9700000286102297 24.517857551574711 24.500000000000004 0.98769220709800731 15 16 17 4.8299999237060556 19.071428298950199 55.303571701049812 18 1.2450000047683718 21.839285850524906 27.500000000000004 11.380852699279787 19 2.5000000000000004 4.4107141494750985
decision_type=2 2 1 2 1 2 2 1 2 2 1 2 1 2 2 2 2 2 2 2 2 2 1 2 1 2 1 2 1 2 2 1 1 2 1 1 1 1 2 2 2 2 2 2 2 2 2 2 1 1 1 2 2 2 1 2 2 2 2 1 2 2
left_child=1 6 5 7 9 8 25 14 20 41 15 50 19 23 -3 16 35 46 24 61 -2 -7 33 34 -9 31 27 -27 -29 -23 -28 32 -1 47 57 37 -13 -5 -10 -31 55 -4 44 -22 -16 -20 -11 -12 -21 52 -6 -50 -15 -19 -44 -41 -39 -14 -59 60 -32 -8
right_child=2 3 4 10 11 21 12 18 38 17 22 36 13 49 42 -17 -18 53 45 48 43 29 -24 -25 -26 26 30 28 -30 39 59 -33 -34 -35 -36 -37 -38 56 -40 40 -42 -43 54 -45 -46 -47 -48 -49 51 -51 -52 -53 -54 -55 -56 -57 -58 58 -60 -61 -62 -63
leaf_value=31.304999679327011 31.524999696016312 30.800000000000001 31.600000000000001 29.899999999999999 30.699999713897704 31.850000000000001 31.299999415874481 30.550000000000001 32.049999499320982 30.649999999999999 31.119999313354491 30.449999999999999 30.149999999999999 29.699999999999999 31.899999999999999 30.25 32.350000000000001 31.350000000000001 30.600000000000001 30.899999999999999 30.649999999999999 32.549999999999997 29.899999999999999 30.699999999999999 30.050000000000001 28.5 29.300000000000001 30.064999800920486 35.279999148845675 34.600000000000001 30 29.699999999999999 29.850000000000001 30.300000000000001 29.899999999999999 31 29.949999999999999 30.199999999999999 31.850000000000001 37.049999785423282 31.149999999999999 32.129998660087587 30.74499973654747 31.299999725818633 31.199999999999999 31.100000000000001 30.899999999999999 30.014993888139724 33.649998772144315 29.550000000000001 31.319999003410338 31.6399995803833 30.050000000000001 32.350000000000001 31.169999587535859 37.824999362230301 30.5 30.350000000000001 30.899999999999999 29.649999999999999 29.649999999999999 30.25
leaf_weight=270 256 2473 574 291 241 1419 99 2351 421 1434 145 1803 4366 14706 536 2107 200 315 608 100 1327 4191 9039 682 992 509 145105 168 120 2234 4046 1934 220 2572 5506 638 892 362 2482 21 74 1125 222 231 469 702 2309 5128 104 11680 837 89 2588 159 347 108 1217 916 159 9750 3978 939
leaf_count=270 256 2473 574 291 241 1419 99 2351 421 1434 145 1803 4366 14706 536 2107 200 315 608 100 1327 4191 9039 682 992 509 145105 168 120 2234 4046 1934 220 2572 5506 638 892 362 2482 21 74 1125 222 231 469 702 2309 5128 104 11680 837 89 2588 159 347 108 1217 916 159 9750 3978 939
internal_value=29.9999 29.9974 30.026 30.0049 30.0153 30.034 29.9963 30.0134 30.0272 30.0204 30.0015 30.0074 29.9985 29.9982 30.0187 30.0073 30.0111 30.0167 30.0087 30.0081 30.0188 30.038 29.9999 30.0008 30.0063 29.9958 29.9957 30.0029 30.0164 30.0393 29.9957 29.9998 30.0072 30.0018 30.0003 30.0094 30.0035 30.0072 30.0325 30.0361 30.025 30.0297 30.0248 30.0164 30.0279 30.0149 30.0152 30.0004 30.0213 29.9972 30.0172 30.0276 29.9979 30.0281 30.0193 30.0372 30.0089 30.002 30.0057 29.997 29.9982 30.0045
internal_weight=260886 238433 22453 30399 9689 12764 208034 8700 4717 5916 21699 3773 41934 40603 4047 4815 2708 4217 4653 1331 1814 8047 16884 11629 3343 166100 163676 797 288 6628 162879 2424 490 7845 10947 2508 2695 1870 2903 2437 203 1699 1574 1558 1005 1310 3743 5273 293 28974 1078 193 17294 474 569 129 1579 5441 1075 17774 8024 1038
internal_count=260886 238433 22453 30399 9689 12764 208034 8700 4717 5916 21699 3773 41934 40603 4047 4815 2708 4217 4653 1331 1814 8047 16884 11629 3343 166100 163676 797 288 6628 162879 2424 490 7845 10947 2508 2695 1870 2903 2437 203 1699 1574 1558 1005 1310 3743 5273 293 28974 1078 193 17294 474 569 129 1579 5441 1075 17774 8024 1038
cat_boundaries=0 1 3 5 7 8 10 12 13 14 15 17 19 21 23 24 25 27 29 31 33
cat_threshold=3221268992 536936528 33925 1073855000 33411 536914432 99333 1073777152 2289631448 402 708460992 1332 512 4 1 34078849 19 705107000 100342 536904192 1025 137904172 850 4 4 2857979960 247636 356794500 16416 1073748504 32768 4051009564 108018
is_linear=0
shrinkage=1


Tree=1
num_leaves=63
num_cat=13
split_feature=10 11 14 0 6 14 6 14 14 0 13 0 11 7 1 13 11 14 14 14 6 11 6 10 0 7 14 1 13 0 4 11 7 13 11 14 14 9 13 0 1 14 1 6 0 10 14 13 6 1 14 1 6 10 12 6 1 10 9 11 1 4
split_gain=6315.52 781.978 723.949 322.785 196.192 140.54 111.441 87.1802 73.388 63.1466 52.9682 46.4487 41.4693 34.8536 33.9098 35.6889 31.2453 30.9178 28.38 26.5556 25.7174 23.513 21.7104 19.2899 15.6518 14.8992 14.6099 30.2633 13.4239 13.3432 13.2952 18.7228 13.1701 13.1239 12.3557 10.7147 10.6013 10.2546 10.2199 10.2112 9.93821 9.57909 9.3575 9.14217 9.08177 9.09191 8.64257 8.59649 8.59468 8.38902 7.96871 7.88073 7.84707 7.6659 7.47066 6.9435 7.78144 6.8178 6.75276 6.68833 10.2548 10.1049
threshold=30.214285850524906 18.482142448425297 0 2.5000000000000004 38.500000000000007 1 21.500000000000004 2 3 2.5000000000000004 8.3059468269348162 2.5000000000000004 41.875000000000007 36.500000000000007 7.5000000000000009 23.677269935607914 25.196428298950199 4 5 6 42.500000000000007 55.303571701049812 23.500000000000004 24.071428298950199 2.5000000000000004 33.500000000000007 7 9.5000000000000018 5.4930813312530526 2.5000000000000004 1.4100000262260439 2.5178571939468388 31.500000000000004 18.815660476684574 32.482143402099616 8 9 45.500000000000007 15.292280197143556 2.5000000000000004 1.5000000000000002 10 9.5000000000000018 28.500000000000004 6.5000000000000009 39.214284896850593 11 19.436557769775394 28.500000000000004 10.500000000000002 12 1.5000000000000002 28.500000000000004 1.0714285969734194 2.1268954277038579 30.500000000000004 8.5000000000000018 5.2142856121063241 31.500000000000004 86.803569793701186 11.500000000000002 1.4650000333786013
decision_type=2 2 1 2 2 1 2 1 1 2 2 2 2 2 2 2 2 1 1 1 2 2 2 2 2 2 1 2 2 2 2 2 2 2 2 1 1 2 2 2 2 1 2 2 2 2 1 2 2 2 1 2 2 2 2 2 2 2 2 2 2 2
left_child=1 6 4 7 12 9 10 16 14 34 26 -7 24 -6 15 35 43 23 38 20 25 32 41 -9 -2 -8 27 30 -28 46 -1 -32 -11 37 52 -5 -24 40 -12 -30 -15 49 -18 54 45 -26 53 51 -37 -10 -13 -14 -4 -20 -3 56 -34 -17 -25 60 -35 -62
right_child=2 3 5 8 13 11 19 17 22 21 18 50 47 33 -16 57 42 -19 29 -21 -22 -23 36 58 44 -27 28 -29 39 -31 31 -33 55 59 -36 48 -38 -39 -40 -41 -42 -43 -44 -45 -46 -47 -48 -49 -50 -51 -52 -53 -54 -55 -56 -57 -58 -59 -60 -61 61 -63
leaf_value=-0.85510013803259344 1.3906246680020509 3.6799997067451482 0.72409965136036158 0.125 1.7614996480941774 1.1489988255500794 0.19250000000000009 0.52249999999999996 -0.015000000000000036 0.66750000000000009 0.53749999999999998 0.47750000000000004 0.67250000000000021 0.72250000000000014 0.23750000000000002 2.2324999999999999 1.5550000000000002 0.20899926722049714 0.88249990463256833 -0.077500000000000041 1.263249857723713 2.167499793767929 0.34982502019567729 0.70549973785877229 0.56750000000000012 0.74750000000000005 -0.71500000000000008 5.2859992796182631 -0.20000000000000001 -0.33499999999999996 2.8759995752573015 -0.48825005799531934 0.86750000000000016 3.4200000000000004 2.0935000669956207 0.49599961757659916 0.055000000000000077 2.5725000000000002 2.0124998098611835 -0.48249999999999993 1.6575 -0.14499999999999993 1.0606248208881102 0.81000000000000005 1.1269996327161789 0.95750000000000002 -0.017500000000000071 2.1357496282458306 0.77500000000000002 0.34925030559301384 -0.020000601410865751 1.3075000000000001 1.3700000000000001 0.24250000000000008 0.55999999999999994 0.98249999999999993 0.45499974966049206 1.5499997735023499 0.89500000000000002 6.3199992370605473 6.1531247287988995 1.6374996817111971
leaf_weight=663 216 42 95 464 1477 1028 4269 3017 5717 2135 459 1574 100 116 2151 161 964 1367 81 7692 342 174 1860 734 1223 274 125707 81 11161 16648 57 58 510 2234 1028 1605 2586 2841 212 33385 1338 6533 382 897 238 420 5088 694 435 1252 1010 1070 626 249 1140 1228 281 96 604 641 66 90
leaf_count=663 216 42 95 464 1477 1028 4269 3017 5717 2135 459 1574 100 116 2151 161 964 1367 81 7692 342 174 1860 734 1223 274 125707 81 11161 16648 57 58 510 2234 1028 1605 2586 2841 212 33385 1338 6533 382 897 238 420 5088 694 435 1252 1010 1070 626 249 1140 1228 281 96 604 641 66 90
internal_value=-7.88862e-05 -0.00246617 0.0252721 0.00480567 0.0330969 0.0149144 -0.00359369 0.0127435 0.00162948 0.0195688 -0.0038896 0.00705135 0.0238816 0.037281 0.00703779 0.0107189 0.0190611 0.00891312 -0.00162225 0.000967241 0.00384576 0.0163609 0.000145338 0.0109794 0.0190582 0.00285824 -0.00419088 0.00230725 -0.00422356 -0.00193106 -0.000694089 0.015 0.0156066 0.0386937 0.0276186 0.00889776 0.00317589 0.0404715 0.00843612 -0.00347798 0.0370564 -0.000852467 0.025052 0.0152742 0.0175944 0.0162721 0.000223328 0.0293079 0.010439 0.000437741 0.00349458 0.0319231 0.0226006 0.00794118 0.0123858 0.0185017 0.0148483 0.028463 0.0160015 0.0361745 0.0349582 0.0225641
internal_weight=260886 238433 22453 32007 12764 9689 206426 9147 22860 6077 193849 3612 3961 8803 4912 2761 3425 5722 22737 12577 4885 4328 17948 4355 2097 4543 171112 859 170253 22066 778 115 4154 7326 1749 2504 4446 4295 671 44546 1454 13502 1346 2079 1881 1643 5418 1864 2040 6969 2584 1170 721 330 1182 2019 791 257 1338 3031 2390 156
internal_count=260886 238433 22453 32007 12764 9689 206426 9147 22860 6077 193849 3612 3961 8803 4912 2761 3425 5722 22737 12577 4885 4328 17948 4355 2097 4543 171112 859 170253 22066 778 115 4154 7326 1749 2504 4446 4295 671 44546 1454 13502 1346 2079 1881 1643 5418 1864 2040 6969 2584 1170 721 330 1182 2019 791 257 1338 3031 2390 156
cat_boundaries=0 1 3 5 7 9 10 12 13 15 17 19 20 22
cat_threshold=3221268992 536936568 33925 1073850896 32899 536914432 33797 708465000 1844 1073744384 3794897424 100310 512 512 1024 2419654808 66448 142299346 66002 33559600 137904128 338
is_linear=0
shrinkage=0.05


Tree=2
num_leaves=63
num_cat=23
split_feature=11 6 6 11 7 14 14 14 7 14 13 14 14 6 14 15 0 0 7 0 0 11 14 11 0 8 6 0 1 14 7 5 14 4 15 14 5 0 4 1 1 14 11 1 14 1 15 14 5 14 8 4 15 14 1 14 11 14 0 1 11 15
split_gain=5701.69 879.386 477.221 199.786 198.775 167.91 114.172 69.3158 59.9816 59.0424 49.5256 44.0886 42.716 38.7707 25.0097 30.4412 21.8591 20.8531 19.9526 19.7947 19.5236 19.5 18.4464 17.9476 16.7172 16.3581 16.1756 15.9402 14.6603 13.4919 13.1807 13.1305 13.102 36.925 22.4329 12.5451 11.4336 11.7344 11.1006 25.8822 13.1426 11.0936 10.9968 10.6785 10.5411 14.7014 14.2879 15.3766 9.99941 9.80496 9.6653 9.46306 9.45691 10.5919 8.87002 8.60563 8.55396 8.2459 8.14255 8.027 7.65744 7.55344
threshold=31.125000000000004 23.500000000000004 38.500000000000007 17.732142448425297 30.500000000000004 0 1 2 43.500000000000007 3 6.3624539375305185 4 5 41.500000000000007 6 7 2.5000000000000004 2.5000000000000004 38.500000000000007 2.5000000000000004 2.5000000000000004 16.589285850524906 8 38.375000000000007 2.5000000000000004 28.500000000000004 34.500000000000007 2.5000000000000004 1.5000000000000002 9 1.0000000180025095e-35 0.96197178959846508 10 1.2649999856948855 11 12 1.0097913146018984 2.5000000000000004 1.4100000262260439 11.500000000000002 2.5000000000000004 13 22.553571701049808 8.5000000000000018 14 7.5000000000000009 15 16 0.98622146248817455 17 31.500000000000004 1.4100000262260439 18 19 3.5000000000000004 20 40.553571701049812 21 3.5000000000000004 1.5000000000000002 18.339285850524906 22
decision_type=2 2 2 2 2 1 1 1 2 1 2 1 1 2 1 1 2 2 2 2 2 2 1 2 2 2 2 2 2 1 2 2 1 2 1 1 2 2 2 2 2 1 2 2 1 2 1 1 2 1 2 2 1 1 2 1 2 1 2 2 2 1
left_child=1 3 6 10 7 8 23 13 29 26 31 16 18 25 15 -12 -5 35 43 41 49 -9 28 -2 42 60 50 -14 -10 -4 -15 52 33 -33 -35 -11 37 -7 -24 40 -40 -13 -23 54 45 46 -18 -48 -46 -16 -6 -28 53 -1 -8 -22 -41 -29 -32 -31 -3 -34
right_child=2 4 5 11 9 36 12 21 22 17 14 19 27 30 20 -17 44 -19 -20 -21 55 24 38 -25 -26 -27 51 57 -30 59 58 32 61 34 -36 -37 -38 -39 39 56 -42 -43 -44 -45 48 -47 47 -49 -50 -51 -52 -53 -54 -55 -56 -57 -58 -59 -60 -61 -62 -63
leaf_value=0.88549972158670431 0.78762682668501949 0.23287500000000014 1.6174246168146753 0.84367487061023716 0.72973727579414849 1.7502498392888914 0.47162500000000007 -0.046124999999999972 1.1576624192742506 0.84039366125379189 0.34905074064985664 0.32254491179422567 1.0388249612156322 3.1379816365021767 0.10999999999999997 3.0742496616930639 -0.10125015721308335 0.3020749782621861 1.2245946998225667 -0.13774999999999996 -0.31087500000000007 0.28387499999999993 5.3946248497985279 1.4727872192710638 0.13750874899021623 0.61950000000000005 1.3015000000000001 0.51401830725902364 2.3489999999999998 0.29687499940392947 1.2322546694888556 -1.3822449930983705 -0.47925000000000006 0.20294998231533726 5.0252275446746593 0.49972737350426488 0.052274990022182492 0.75587500000000007 2.2464998509883882 1.0288249420523641 2.9990000000000001 -0.091307525531659398 0.59637499999999999 0.50071226994653384 1.0269494453908439 0.07562499999999997 0.22237711010071082 1.22520001912117 0.050000305593013827 -0.17249999999999999 1.1365280835513885 1.3633871760762799 -0.34925 -0.49705010753870021 0.78912500000000019 -0.44087500000000013 -1.6393749840855598 -0.14537499797625023 0.58443728018714192 1.3860049965462344 0.38175885296357559 -0.67925000000000013
leaf_weight=248 822 1697 1703 1810 644 591 445 5236 334 1863 433 1399 351 200 3407 88 281 1043 1222 11033 18247 1932 1338 1848 3785 1282 316 1144 3438 75 447 506 29826 101 116 558 125 708 147 35 1457 672 717 901 175 1190 708 511 5355 8721 404 925 1778 187 1130 17223 65 412 263 1177 2721 113370
leaf_count=248 822 1697 1703 1810 644 591 445 5236 334 1863 433 1399 351 200 3407 88 281 1043 1222 11033 18247 1932 1338 1848 3785 1282 316 1144 3438 75 447 506 29826 101 116 558 125 708 147 35 1457 672 717 901 175 1190 708 511 5355 8721 404 925 1778 187 1130 17223 65 412 263 1177 2721 113370
internal_value=-0.000197137 -0.00229618 0.0258326 -0.00329956 0.00677964 0.0325637 0.0167281 0.00422866 0.0349069 0.0148853 -0.00382266 0.00109276 0.0125957 0.00831571 -0.00243137 0.008371 0.00358566 0.0106592 0.0157524 -0.000817448 -0.00255083 0.00190496 0.0375227 0.0252612 0.00375039 0.00679824 0.0211418 0.0064241 0.0403728 0.0289932 0.0179121 -0.00428079 -0.00433956 0.00236698 0.0196544 0.0132363 0.0161297 0.0176328 0.0337451 0.0311796 0.0327182 0.00366731 0.0067969 0.0132149 0.00249392 0.00505555 0.00836667 0.0107096 0.00123646 -0.000819592 0.0166603 0.0250967 -0.000458655 0.00614942 0.0156984 -0.0031435 0.0065 0.00428663 0.0147183 0.0240016 0.00535536 -0.00437328
internal_weight=260886 241418 19468 217385 24033 11193 8275 18280 9769 5753 194251 23134 5605 6610 48119 521 10030 3464 3698 13104 47598 11670 6814 2670 6434 5700 2289 1907 3772 2955 910 146132 143919 723 217 2421 1424 1299 3042 1704 1604 2071 2649 2476 8220 2690 1500 1219 5530 12128 1048 1241 2213 435 1575 35470 100 1556 710 1252 4418 143196
internal_count=260886 241418 19468 217385 24033 11193 8275 18280 9769 5753 194251 23134 5605 6610 48119 521 10030 3464 3698 13104 47598 11670 6814 2670 6434 5700 2289 1907 3772 2955 910 146132 143919 723 217 2421 1424 1299 3042 1704 1604 2071 2649 2476 8220 2690 1500 1219 5530 12128 1048 1241 2213 435 1575 35470 100 1556 710 1252 4418 143196
cat_boundaries=0 2 3 5 7 9 11 12 13 14 15 16 17 19 21 23 24 26 28 29 31 33 35 36
cat_threshold=3221268992 32897 3221234176 1611770392 33925 536979984 66693 674884304 34071 536905728 33921 512 4 3221266432 3221234176 512 4 1513623848 33586 1447170344 66208 43520 32773 4 32768 1 3925974072 33170 1 33554561 19 2824460312 116564 135856208 278 1
is_linear=0
shrinkage=0.05


Tree=3
num_leaves=63
num_cat=19
split_feature=11 6 6 11 7 14 14 14 14 0 14 13 6 14 14 14 6 0 1 0 11 0 0 0 14 6 9 8 15 0 14 14 13 15 10 6 10 5 0 0 14 1 15 13 5 14 8 11 11 14 0 5 10 11 1 14 13 1 1 11 14 13
split_gain=5090.29 779.604 469.566 184.908 174.594 162.354 98.8186 59.1197 55.8076 50.0895 45.1521 44.2866 37.7761 33.1422 28.2079 24.5825 23.8563 23.0369 21.6315 21.3713 20.5343 20.0496 19.3355 17.1662 16.9452 16.5184 16.3389 14.7275 14.2348 13.3278 12.9259 12.8955 11.6268 11.2953 10.922 10.837 10.7331 10.6087 10.5455 9.70763 9.55092 13.2676 11.5328 15.7728 9.44167 9.38213 8.95915 8.42642 8.27639 7.78492 7.77283 7.74436 7.42073 7.36813 8.71182 7.01357 6.92128 6.83423 10.9274 6.76593 6.76293 6.74141
threshold=31.125000000000004 23.500000000000004 38.500000000000007 16.875000000000004 30.500000000000004 0 1 2 3 2.5000000000000004 4 8.6400690078735369 41.500000000000007 5 6 7 53.500000000000007 2.5000000000000004 1.5000000000000002 2.5000000000000004 41.875000000000007 2.5000000000000004 2.5000000000000004 2.5000000000000004 8 37.500000000000007 23.500000000000004 25.500000000000004 9 2.5000000000000004 10 11 22.216080665588382 12 31.785714149475101 34.500000000000007 22.214285850524906 0.96711069345474254 2.5000000000000004 2.5000000000000004 13 7.5000000000000009 14 10.257981777191164 0.98622146248817455 15 34.500000000000007 43.196428298950202 37.303571701049812 16 2.5000000000000004 0.91461405158042919 27.357143402099613 20.053571701049808 7.5000000000000009 17 4.9102392196655282 8.5000000000000018 3.5000000000000004 53.196428298950202 18 18.815660476684574
decision_type=2 2 2 2 2 1 1 1 1 2 1 2 2 1 1 1 2 2 2 2 2 2 2 2 1 2 2 2 1 2 1 1 2 1 2 2 2 2 2 2 1 2 1 2 2 1 2 2 2 1 2 2 2 2 2 1 2 2 2 2 1 2
left_child=1 3 6 11 7 9 20 12 25 48 21 24 27 17 23 28 18 -8 -11 31 38 53 36 -7 29 46 55 52 -13 33 47 -12 -14 37 -19 -28 -10 -1 -2 49 41 42 -23 -44 -42 -21 -6 -20 -4 -17 -15 -47 -3 -5 -55 -9 -26 58 -36 -25 -35 -50
right_child=2 4 5 10 8 14 13 26 22 16 19 15 32 50 -16 39 -18 34 30 45 -22 40 -24 59 56 -27 35 -29 -30 -31 -32 -33 -34 60 57 -37 -38 -39 -40 -41 44 -43 43 -45 -46 51 -48 -49 61 -51 -52 -53 -54 54 -56 -57 -58 -59 -60 -61 -62 -63
leaf_value=1.7712247903436422 2.2751831520205612 0.21593112905025486 1.6226848992109844 0.49432065043399054 0.77522377153969235 1.9367430188120403 1.2160202650088718 0.11118125000000011 0.44510518753562672 0.56349178426490187 -0.10838458708444208 2.2426889688770886 0.94002226224162122 0.85600354086539421 0.88251160489871272 -0.15200067567825329 2.7002521519489004 0.37805246070549831 0.86250220745781359 -0.23086249999999994 1.6202028012436689 -0.096187492139345743 0.28697122934907676 0.93657475017268832 -0.7452875000000001 1.4069305040095734 0.18218125000000002 0.52720573150515548 0.44203712294994668 -0.54528750000000004 1.6495873565939392 0.27764998215436937 3.3601481645061266 0.077112393701076476 0.31197167756882727 0.57773123817976557 0.842635332849063 0.002162373736500692 0.73598563903644676 -0.29020864109992972 1.4810856763797917 0.071843750000000026 0.17225403333785416 0.89756347765058109 0.047500290313363183 1.4504321312832731 1.1441234442060957 1.4035537867545576 2.5264250000000006 0.21449999999999997 0.15994300577859766 -0.071487500000000023 0.46627704138403597 1.4132158922729785 0.52704106335663403 -0.13881874999999991 -0.42278749999999993 0.54139494922346376 0.8740461871160492 1.8142840926191863 -0.39528750000000007 4.47024984350608
leaf_weight=68 182 3383 365 808 928 904 568 4737 836 201 927 148 887 205 808 2835 2515 1121 345 5665 1669 305 1043 851 81157 943 2172 2024 444 42029 1066 1997 133 965 347 731 1585 3260 1110 13373 159 1267 552 752 5202 54 418 1145 1734 1680 943 8476 1143 599 478 3070 32471 884 1246 156 11714 1103
leaf_count=68 182 3383 365 808 928 904 568 4737 836 201 927 148 887 205 808 2835 2515 1121 345 5665 1669 305 1043 851 81157 943 2172 2024 444 42029 1066 1997 133 965 347 731 1585 3260 1110 13373 159 1267 552 752 5202 54 418 1145 1734 1680 943 8476 1143 599 478 3070 32471 884 1246 156 11714 1103
internal_value=-0.000333787 -0.0023171 0.0242608 -0.00326184 0.00622831 0.0309376 0.0152296 0.00383753 0.013825 0.0343741 0.000590836 -0.00381379 0.00721636 0.0110781 0.0200275 -0.0014881 0.0314188 0.0131633 0.0282064 -0.000974664 0.0225665 0.00323628 0.00972366 0.0234487 -0.00406416 0.0199021 0.00144123 0.00583206 0.00845515 -0.00336595 0.0294484 0.00291724 0.0161765 -0.00213875 0.0117176 0.00464519 0.0122036 0.000453725 0.0179102 -0.00182088 0.00217494 0.00449411 0.00752331 0.00957055 0.000920684 -0.00177704 0.0164339 0.0329333 0.0393473 0.000182723 0.00346287 -0.000725997 0.00424657 0.00789125 0.0105989 0.000251696 -0.00442009 0.0135709 0.0155273 0.0190814 -0.00281923 0.0402591
internal_weight=260886 241418 19468 217385 24033 11193 8275 18280 5753 8474 27241 190144 7570 5314 2719 18480 5272 4166 2757 17119 2961 10122 3464 1911 171664 2289 10710 6550 592 58036 2556 2924 1020 16007 3598 2903 2421 3328 1292 17888 8237 2876 1609 1304 5361 14195 1346 1490 3202 4515 1148 8530 4526 1885 1077 7807 113628 2477 1593 1007 12679 2837
internal_count=260886 241418 19468 217385 24033 11193 8275 18280 5753 8474 27241 190144 7570 5314 2719 18480 5272 4166 2757 17119 2961 10122 3464 1911 171664 2289 10710 6550 592 58036 2556 2924 1020 16007 3598 2903 2421 3328 1292 17888 8237 2876 1609 1304 5361 14195 1346 1490 3202 4515 1148 8530 4526 1885 1077 7807 113628 2477 1593 1007 12679 2837
cat_boundaries=0 1 2 4 6 8 10 12 13 15 16 17 19 20 22 23 25 27 29 31
cat_threshold=3221268992 3221236224 1611770392 34503 536979984 66693 538569424 34071 541163600 33927 536936448 33923 2560 3089060352 37813 1 3221233664 2172912647 157768 1 43520 32773 4 2239759623 141352 360464579 102593 2590904768 304 2147484160 160
is_linear=0
shrinkage=0.05


Tree=4
num_leaves=63
num_cat=19
split_feature=10 14 6 13 6 0 7 14 14 14 13 14 0 14 10 7 7 1 8 9 6 6 14 12 5 0 9 4 14 0 7 15 10 14 8 14 4 14 15 1 1 7 8 8 7 4 1 1 12 15 9 1 14 6 14 14 13 14 7 15 10 6
split_gain=4573.42 606.353 507.619 157.431 149.262 146.964 136.616 79.3887 70.4106 59.9432 46.5523 44.681 40.3837 36.6885 27.5885 27.2145 24.8794 22.2678 21.9012 21.7292 19.5359 18.6578 18.1314 17.3646 16.8169 13.7749 13.6944 12.2012 12.0916 12.0736 11.7934 11.2847 11.0909 10.9357 10.7449 10.6247 18.6946 10.5553 13.7531 10.2797 10.2445 10.0616 9.59323 9.15801 9.14086 8.89851 8.48202 11.155 8.38454 8.34666 8.19361 8.15638 8.12807 8.07542 7.85193 7.5467 7.43306 7.29129 6.85544 6.85191 7.13411 6.77972
threshold=29.928571701049808 0 21.500000000000004 8.3059468269348162 41.500000000000007 2.5000000000000004 27.500000000000004 1 2 3 18.815660476684574 4 2.5000000000000004 5 39.642858505249031 17.500000000000004 17.500000000000004 3.5000000000000004 27.500000000000004 53.500000000000007 32.500000000000007 30.500000000000004 6 4.7809119224548349 0.96197178959846508 2.5000000000000004 40.500000000000007 1.3650000095367434 7 2.5000000000000004 43.500000000000007 8 23.642856597900394 9 33.500000000000007 10 1.2649999856948855 11 12 1.5000000000000002 8.5000000000000018 23.500000000000004 25.500000000000004 27.500000000000004 28.500000000000004 1.5900000333786013 8.5000000000000018 3.5000000000000004 26.836364746093754 13 29.500000000000004 10.500000000000002 14 34.500000000000007 15 16 20.217991828918461 17 20.500000000000004 18 98.642856597900405 31.500000000000004
decision_type=2 1 2 2 2 2 2 1 1 1 2 1 2 1 2 2 2 2 2 2 2 2 1 2 2 2 2 2 1 2 2 1 2 1 2 1 2 1 1 2 2 2 2 2 2 2 2 2 2 1 2 2 1 2 1 1 2 1 2 1 2 2
left_child=2 4 3 15 14 9 13 20 10 19 49 18 -6 21 26 24 33 59 -8 44 46 41 -13 27 37 32 61 -12 31 50 -19 35 -24 -10 -22 36 -26 38 -1 -16 -36 -4 -15 48 -3 -38 47 -7 -23 -5 -18 -29 -17 -20 -11 -9 -32 -31 -49 -14 -61 -2
right_child=1 5 6 8 12 7 11 55 16 54 23 22 17 42 39 52 29 30 53 -21 34 43 25 -25 28 -27 -28 51 -30 57 56 -33 -34 -35 40 -37 45 -39 -40 -41 -42 -43 -44 -45 -46 -47 -48 58 -50 -51 -52 -53 -54 -55 -56 -57 -58 -59 -60 60 -62 -63
leaf_value=1.0503241794219995 0.4629443767139268 0.91713760556162149 0.1519439606883107 0.86755629814683288 3.1997948632458897 0.23294513643844567 0.54292494588568596 0.37790709546224632 -0.038195817945003444 0.50562414238578135 -1.679024501025737 -0.010191591413019552 1.5177485561695798 -0.073078118200302036 0.75889390368457998 -0.029948631635058304 0.17210003378391259 1.5968354039735686 0.96321722749351002 2.2815867472921534 0.67551112055389106 0.40847817171718548 0.45592462000665979 1.3993005495896953 -1.2858683684434518 0.28229579526190501 1.1019460279712889 3.1178779235681611 -0.61802312500000012 0.080874970204681249 1.7914123924025553 -0.51802312500000003 0.79130542340115306 -0.3190176525060302 1.1339612606936327 -0.29806687500000012 5.3047577081616533 -0.54452312499999989 0.095476746137738364 1.3874754989742635 0.75266772089893685 0.33560165050631113 0.18626540250315846 0.63451884264992719 1.4539464855822744 1.9869767450618747 0.37654450195004463 0.4679998840759696 1.9925337856350305 0.17558138934171927 0.63624287103922206 2.8220099149559856 -0.22414812500000014 1.1512979716273939 1.1377626050644694 -0.052592759400137037 4.0602817719086772 -0.16931937499999991 0.82320751580735196 1.098910694658694 3.4742561105735632 0.58468922449034355
leaf_weight=273 630 170 5325 243 2698 499 692 1718 8862 250 26 624 446 8549 156 6134 2256 1083 601 727 1691 1983 1720 232 166 1350 393 286 100055 5709 1333 47861 1303 12754 910 10942 51 1247 871 1939 538 1063 1861 798 1212 110 1011 290 65 1075 984 37 8598 554 1167 967 989 2779 1159 410 66 395
leaf_count=273 630 170 5325 243 2698 499 692 1718 8862 250 26 624 446 8549 156 6134 2256 1083 601 727 1691 1983 1720 232 166 1350 393 286 100055 5709 1333 47861 1303 12754 910 10942 51 1247 871 1939 538 1063 1861 798 1212 110 1011 290 65 1075 984 37 8598 554 1167 967 989 2779 1159 410 66 395
internal_value=-0.000457021 0.0209115 -0.00250797 -0.00332499 0.0297175 0.0133375 0.00401729 0.00988671 -0.00027424 0.0219711 0.00906495 0.0101008 0.0339537 0.00189778 0.0213308 -0.00393482 -0.0008086 0.0309602 0.0167555 0.0273502 0.0130337 0.00418974 0.00759237 0.0209036 -0.0041224 0.00873488 0.015945 0.0279513 -0.00418491 0.00104536 0.0328267 -0.00361431 0.0106302 -0.00181486 0.0158028 -0.00219141 0.0065727 3.97311e-05 0.0034922 0.0249761 0.0189641 0.00269411 -0.000139157 0.00756149 0.0237988 0.018913 0.0101402 0.0120688 0.00579101 0.00391502 0.00364197 0.0306037 -0.00187755 0.0210606 0.0136755 0.00268089 0.0348363 5.4193e-05 0.0142892 0.0240672 0.019895 0.0129024
internal_weight=260886 22847 238039 211551 10538 12309 26488 8783 35243 3526 1899 6844 7025 19644 3513 176308 33344 4327 1847 2109 6098 9234 4997 581 161576 4373 1418 349 159185 11728 3405 59130 3023 21616 3139 11269 327 2391 1144 2095 1448 6388 10410 2846 1382 161 2959 1948 2048 1318 3240 323 14732 1155 1417 2685 2322 8488 1449 922 476 1025
internal_count=260886 22847 238039 211551 10538 12309 26488 8783 35243 3526 1899 6844 7025 19644 3513 176308 33344 4327 1847 2109 6098 9234 4997 581 161576 4373 1418 349 159185 11728 3405 59130 3023 21616 3139 11269 327 2391 1144 2095 1448 6388 10410 2846 1382 161 2959 1948 2048 1318 3240 323 14732 1155 1417 2685 2322 8488 1449 922 476 1025
cat_boundaries=0 1 3 4 6 8 10 12 14 15 17 18 20 21 22 24 26 28 30 31
cat_threshold=3221236224 536969336 33925 43520 536969232 32897 536979456 65665 3761867288 34775 96470087 145472 3091192320 37813 1 1649479736 50967 2560 168297089 4371 1 1 1897730584 34293 356794752 16416 137904128 850 1748586544 116631 2
is_linear=0
shrinkage=0.05


Tree=5
num_leaves=63
num_cat=25
split_feature=11 11 6 0 14 6 14 14 6 0 13 14 14 14 6 0 9 8 14 14 15 14 6 0 14 6 9 6 14 6 14 4 15 1 13 1 5 14 4 1 15 11 1 13 11 5 14 14 14 15 14 0 13 14 15 11 11 7 15 14 6 7
split_gain=4049.08 639.26 435.535 197.491 109.356 109.232 96.1665 61.8001 59.2654 53.7296 41.0776 38.7638 31.2201 27.9492 27.7513 26.4739 23.6037 22.8055 22.7461 22.1593 20.5203 19.603 15.8405 14.1228 14.1522 13.5619 12.9577 12.6954 12.3108 12.3049 12.1163 35.7716 16.327 11.9073 11.2459 11.1241 10.801 9.81466 11.5457 13.2181 10.4794 9.72863 9.91511 9.5867 9.47751 9.23254 9.12556 8.71197 8.59692 8.50838 8.43796 8.41588 8.39522 8.09457 8.29356 7.98195 7.82989 7.14822 7.10131 6.78726 6.75495 6.58477
threshold=31.125000000000004 18.482142448425297 43.500000000000007 2.5000000000000004 0 17.500000000000004 1 2 33.500000000000007 2.5000000000000004 6.3624539375305185 3 4 5 27.500000000000004 2.5000000000000004 53.500000000000007 38.500000000000007 6 7 8 9 28.500000000000004 2.5000000000000004 10 1.0000000180025095e-35 49.500000000000007 35.500000000000007 11 27.500000000000004 12 1.2649999856948855 13 1.5000000000000002 35.313692092895515 3.5000000000000004 0.98681312799453746 14 1.3650000095367434 11.500000000000002 15 21.839285850524906 8.5000000000000018 23.677269935607914 39.446428298950202 0.97612065076828014 16 17 18 19 20 2.5000000000000004 8.8589401245117205 21 22 23.910714149475101 40.553571701049812 20.500000000000004 23 24 19.500000000000004 28.500000000000004
decision_type=2 2 2 2 1 2 1 1 2 2 2 1 1 1 2 2 2 2 1 1 1 1 2 2 1 2 2 2 1 2 1 2 1 2 2 2 2 1 2 2 1 2 2 2 2 2 1 1 1 1 1 2 2 1 1 2 2 2 1 1 2 2
left_child=1 5 6 8 9 10 16 14 13 56 30 20 15 41 43 -8 27 -11 26 22 -7 -10 -13 24 25 -12 -6 44 45 -17 31 -1 -33 -29 -16 -19 47 40 -39 -40 -37 -3 48 57 -2 -9 -25 49 -43 -32 -15 52 -21 54 59 -30 -4 -5 -50 -38 -47 -24
right_child=2 3 4 7 18 11 12 28 21 17 23 19 -14 50 34 29 -18 35 -20 51 -22 -23 61 46 -26 -27 -28 33 55 -31 36 32 -34 -35 -36 37 53 38 39 -41 -42 42 -44 -45 -46 60 -48 -49 58 -51 -52 -53 -54 -55 -56 -57 -58 -59 -60 -61 -62 -63
leaf_value=-1.2215749500212791 0.57226113331385076 0.48899500687983571 1.6687683812109964 0.09715488103193759 1.1830454037682028 0.84163371321279845 1.122985777117423 0.98154347456118318 1.1786292415753272 1.2523238719335479 1.2498651083565921 0.029374592605507815 0.18932436362096294 -0.04175795148022008 0.58141750015398574 0.41487868276839129 2.0766046219328618 1.662973726223961 0.81751110423586926 -0.078346343823962369 2.9716617951750273 0.68140686407999818 0.34527084311102457 -0.27216571875000017 -0.11672999132087725 -0.089720922398019931 2.0810141437911667 0.24333421537951586 -0.16782194341824699 0.65552801124090632 0.60697311873559467 0.25080595114154669 4.7893482770747529 1.044462984003482 4.7939236037605957 1.1059772547899513 0.031153132579457933 6.8342098412824903 1.9110233038071209 -1.8428996913064126 1.7918540243937942 0.39765538145145868 0.48382468349707919 1.357522605701051 0.97856317007344384 -0.031168820410360829 -0.40824493531970191 -0.56131206095077868 0.36505652881665884 -0.10929696230688678 0.31643155144844259 -0.241679718693247 0.23163545900015625 -0.62712196875000004 -0.54212196875000007 0.070779642835412271 3.117047477246524 0.34397757070262114 1.2582349541889803 -0.41311978125000004 0.15470125140141333 0.75719585245804355
leaf_weight=506 788 1481 490 2895 814 168 872 182 1589 950 208 6699 1000 834 2020 1940 877 599 665 5635 100 1655 1762 17693 9563 180 533 89 5893 2464 325 100 116 1189 45 245 1943 294 982 41 1103 429 742 175 1025 4713 15740 1685 91 1076 2199 7376 1412 86661 40675 2017 2508 2452 804 7051 4147 381
leaf_count=506 788 1481 490 2895 814 168 872 182 1589 950 208 6699 1000 834 2020 1940 877 599 665 5635 100 1655 1762 17693 9563 180 533 89 5893 2464 325 100 116 1189 45 245 1943 294 982 41 1103 429 742 175 1025 4713 15740 1685 91 1076 2199 7376 1412 86661 40675 2017 2508 2452 804 7051 4147 381
internal_value=-0.000569139 -0.00233802 0.0213663 0.00397768 0.0292476 -0.00338618 0.0142698 0.00157932 0.00996844 0.0321504 -0.00379742 -0.000179111 0.0103595 0.00724164 0.00532644 0.0119031 0.0203771 0.0285548 0.0185905 -0.000400646 0.0183813 0.0154994 0.00156914 -0.00245298 -0.000799418 0.00844221 0.0224503 0.0183743 -0.000100815 0.0103497 -0.00421363 0.00224044 0.0193056 0.0221909 0.0102784 0.0305392 -0.00424691 0.0319231 0.0275546 0.0252542 0.0357216 0.0102516 0.0124976 0.00348424 0.0156839 0.00115886 -0.00294515 -0.0013221 0.0150906 0.00159107 0.00367565 -0.00160847 -0.000373919 -0.00431343 -0.00379929 -0.00154041 0.0373115 0.00310735 0.0179282 -0.00242606 0.00093115 0.00531264
internal_weight=260886 241418 19468 34363 9224 207055 10244 24539 9824 7212 183522 23533 6276 6580 7587 5276 3968 4214 2012 23265 268 3244 8842 43384 9951 388 1347 3091 16952 4404 140138 722 216 1278 2065 3264 139416 2665 1317 1023 1348 3547 2066 5522 1813 9042 33433 3086 1324 1401 3033 14423 7047 136330 49669 7910 2998 5347 895 8994 8860 2143
internal_count=260886 241418 19468 34363 9224 207055 10244 24539 9824 7212 183522 23533 6276 6580 7587 5276 3968 4214 2012 23265 268 3244 8842 43384 9951 388 1347 3091 16952 4404 140138 722 216 1278 2065 3264 139416 2665 1317 1023 1348 3547 2066 5522 1813 9042 33433 3086 1324 1401 3033 14423 7047 136330 49669 7910 2998 5347 895 8994 8860 2143
cat_boundaries=0 1 2 4 5 7 9 11 13 14 16 17 19 20 21 22 23 25 27 29 30 32 34 35 36 38
cat_threshold=3221268992 3221236224 539077328 99333 512 538542192 33927 1644804760 34455 536936448 32899 2853537816 99798 4 671201808 32901 4624 408440872 978 512 4 3221233664 1 3898202648 116564 168558721 275 1107361928 1552 1 2172912645 30784 3095349252 37813 1 4 805586944 16
is_linear=0
shrinkage=0.05


Tree=6
num_leaves=63
num_cat=25
split_feature=10 11 9 0 6 14 13 10 11 14 0 14 14 14 6 7 0 14 1 13 0 10 7 14 14 1 14 1 14 0 1 1 14 14 0 13 14 15 14 14 13 15 14 14 10 0 5 15 6 14 1 12 15 6 14 13 15 5 10 7 7 14
split_gain=3645.84 539.23 429.051 165.386 116.388 108.766 97.8094 58.4705 50.6688 47.0653 45.9848 31.6871 28.7999 27.8141 22.7852 21.82 19.538 18.7251 18.5151 20.3795 18.4659 17.0815 16.9967 14.5624 14.2115 14.1764 13.9766 13.7104 13.6551 13.2284 11.692 11.6536 13.5796 10.4812 10.4422 10.3219 10.0768 15.5614 9.80084 9.45989 9.0095 8.83109 9.24767 8.56676 8.22598 8.10607 8.01771 7.99704 7.98999 7.86557 7.71647 7.42706 7.36623 7.31435 7.24928 6.9754 6.95837 6.7635 6.72599 6.64295 6.57957 6.3819
threshold=31.357143402099613 18.482142448425297 42.500000000000007 2.5000000000000004 49.500000000000007 0 5.9615166187286386 44.642858505249031 24.196428298950199 1 2.5000000000000004 2 3 4 32.500000000000007 38.500000000000007 2.5000000000000004 5 7.5000000000000009 35.313692092895515 2.5000000000000004 23.214285850524906 57.500000000000007 6 7 1.5000000000000002 8 8.5000000000000018 9 2.5000000000000004 1.5000000000000002 2.5000000000000004 10 11 2.5000000000000004 15.292280197143556 12 13 14 15 20.217991828918461 16 17 18 27.071428298950199 6.5000000000000009 0.90411844849586498 19 17.500000000000004 20 8.5000000000000018 2.7036094665527348 21 58.500000000000007 22 11.627542018890383 23 0.96711069345474254 69.642856597900405 41.500000000000007 34.500000000000007 24
decision_type=2 2 2 2 2 1 2 2 2 1 2 1 1 1 2 2 2 1 2 2 2 2 2 1 1 2 1 2 1 2 2 2 1 1 2 2 1 1 1 1 2 1 1 1 2 2 2 1 2 1 2 2 1 2 1 2 1 2 2 2 2 1
left_child=1 6 5 8 11 7 24 16 17 18 14 15 25 27 23 -4 -2 56 19 47 61 33 -14 35 34 -6 36 51 -22 -9 -17 58 -33 57 41 -8 37 -12 55 -19 -32 49 -43 -23 59 -18 52 -5 -38 -1 -34 -10 -28 -27 -49 -16 -3 -11 -31 -29 -53 -7
right_child=2 3 4 9 12 20 10 29 13 21 26 -13 22 -15 38 30 45 39 -20 -21 28 43 -24 -25 -26 53 46 44 -30 31 40 32 50 -35 -36 -37 48 -39 -40 -41 -42 42 -44 -45 -46 -47 -48 54 -50 -51 -52 60 -54 -55 -56 -57 -58 -59 -60 -61 -62 -63
leaf_value=0.79722518592035874 1.1625911685770256 0.29273090761895809 0.85480602081812807 0.063149876622908524 0.79674417649095197 0.65125677297682183 0.10096744147420805 2.8765789631441905 3.6643853001054527 1.5363877393931826 0.12561295584794757 0.94070769789174769 1.9529738798094591 0.51017606909251867 0.47895039918678006 0.72688447649392096 0.55952483875599446 -0.010240194960185869 0.15254999918841622 1.9174816055803037 0.45005966741401199 0.19401777935656647 3.8399141483101489 -0.10819171918395637 -0.56974378279325588 1.562249071562738 3.3388251519819372 0.46245941827799286 -0.0098439012284846743 0.66776110269263644 1.3342616329753796 0.91139009708706331 1.346048400904829 -0.16739959624733469 -0.48251587031250004 1.3330920392791807 -0.25863664938220199 1.3243250336049548 0.29732005812614065 0.33196531625516729 2.2680053783845131 0.12305237609527241 -0.35673136570246095 -0.010069576181266271 0.97991657911974972 0.74942968275274324 -0.34523726043974762 0.93356499554466965 0.049049937178458444 -0.093973959710183463 1.6341726032026438 1.0947947637997011 0.42794457420875798 2.2342616329753797 0.31213819705814455 1.2917783488311652 0.73750202737169979 0.018147041933603864 1.9275032050483738 0.93740911084264578 1.2177021084661881 1.1215509294765056
leaf_weight=479 875 324 810 427 212 262 6056 322 61 132 386 908 1210 1602 306 154 3393 902 2351 139 2045 4257 1851 11502 106551 735 23 318 1031 281 1255 655 1031 6162 23750 169 13055 87 867 3195 507 812 7148 2831 273 679 30700 698 3221 1108 611 548 135 1378 1762 192 1496 5140 58 121 734 603
leaf_count=479 875 324 810 427 212 262 6056 322 61 132 386 908 1210 1602 306 154 3393 902 2351 139 2045 4257 1851 11502 106551 735 23 318 1031 281 1255 655 1031 6162 23750 169 13055 87 867 3195 507 812 7148 2831 273 679 30700 698 3221 1108 611 548 135 1378 1762 192 1496 5140 58 121 734 603
internal_value=-0.00067474 -0.00241751 0.0193722 0.00346951 0.0275887 0.0131158 -0.00337156 0.0164972 0.00902235 0.00124503 -0.00179606 0.0206742 0.032254 0.0136492 0.000277078 0.0233991 0.0131928 0.00616275 0.00535827 0.00795439 0.00627563 4.80238e-05 0.0285233 -0.000202235 -0.00412298 0.0368844 -0.00262745 0.0175182 0.00447659 0.0220791 0.0263935 0.0209105 0.0221876 -0.00114746 -0.00321659 0.00174418 -0.0014616 0.00566252 0.00650183 0.00425249 0.0275482 -0.00182099 -0.0025 0.00197658 0.0119944 0.0117362 -0.00325872 0.00705403 -0.00167199 0.00158475 0.0247518 0.0205771 0.00797468 0.0382797 0.00815041 0.0120276 0.0103825 0.000490343 0.0122566 0.00775626 0.019766 0.0127457
internal_weight=260886 240020 20866 33473 9020 11846 206547 7905 9574 23899 66699 3634 5386 3657 19092 2726 4947 5917 5377 3026 3941 18522 3061 17727 139848 2325 47607 2055 3076 2958 1916 2636 2297 11434 33297 6225 16749 473 1365 4097 1762 9547 7960 7088 712 4072 30858 2887 16276 1587 1642 1343 158 2113 2460 498 1820 5272 339 439 1282 865
internal_count=260886 240020 20866 33473 9020 11846 206547 7905 9574 23899 66699 3634 5386 3657 19092 2726 4947 5917 5377 3026 3941 18522 3061 17727 139848 2325 47607 2055 3076 2958 1916 2636 2297 11434 33297 6225 16749 473 1365 4097 1762 9547 7960 7088 712 4072 30858 2887 16276 1587 1642 1343 158 2113 2460 498 1820 5272 339 439 1282 865
cat_boundaries=0 2 4 6 7 9 11 13 15 17 19 21 23 24 25 27 29 30 32 34 35 37 38 40 41 43
cat_threshold=3221334608 33797 536914432 99333 3221268992 128 3221233664 2954476032 32901 570526360 33425 3927023128 33266 2955870720 33717 672242456 99668 674775080 386 98304 33797 142168282 850 512 4 167811776 67222 2508465157 30720 1 2147484160 160 3627630680 16786 4 268829184 16 1 2560 32772 4 289689760 16672
is_linear=0
shrinkage=0.05


Tree=7
num_leaves=63
num_cat=19
split_feature=11 10 6 0 13 14 14 0 0 14 14 10 0 11 7 14 8 6 14 14 10 14 14 1 11 10 14 13 13 11 13 2 0 9 12 14 1 0 7 13 7 13 1 1 15 1 14 15 14 1 11 14 15 4 15 14 8 7 13 11 9 12
split_gain=3233.21 543.03 385.158 129.44 109.282 85.6512 83.3698 52.483 45.6183 45.3469 42.7707 28.7001 28.19 27.0065 25.2129 22.6555 19.7472 16.8977 16.6047 14.6035 14.5193 14.3756 13.9553 13.7569 12.69 11.7063 11.1515 14.57 10.929 10.7807 10.7766 10.4304 10.4189 9.90966 9.68248 9.37629 9.2567 9.11482 9.08741 8.512 8.18054 7.95881 7.91669 14.8014 7.6686 7.54805 7.38972 9.48269 7.29586 7.29446 9.1226 7.07589 6.92449 7.54008 6.8251 9.59778 6.74128 6.65476 6.62553 6.58017 6.49771 6.28555
threshold=31.125000000000004 19.642856597900394 46.500000000000007 2.5000000000000004 5.9615166187286386 0 1 2.5000000000000004 2.5000000000000004 2 3 28.214285850524906 2.5000000000000004 14.625000000000002 38.500000000000007 4 51.500000000000007 30.500000000000004 5 6 25.928571701049808 7 8 1.5000000000000002 16.160714149475101 41.357141494750984 9 15.292280197143556 25.691649436950687 38.375000000000007 23.677269935607914 1.0000000180025095e-35 6.5000000000000009 53.500000000000007 3.7764923572540288 10 8.5000000000000018 2.5000000000000004 61.500000000000007 11.899129390716555 50.500000000000007 20.217991828918461 8.5000000000000018 6.5000000000000009 11 11.500000000000002 12 13 14 1.5000000000000002 39.446428298950202 15 16 4.8299999237060556 17 18 33.500000000000007 32.500000000000007 16.495109558105472 67.910717010498061 33.500000000000007 24.958537101745609
decision_type=2 2 2 2 2 1 1 2 2 1 1 2 2 2 2 1 2 2 1 1 2 1 1 2 2 2 1 2 2 2 2 2 2 2 2 1 2 2 2 2 2 2 2 2 1 2 1 1 1 2 2 1 1 2 1 1 2 2 2 2 2 2
left_child=1 4 5 10 22 14 8 13 25 11 17 61 35 26 34 29 31 -3 24 39 48 38 37 -16 46 -4 27 -6 -13 -14 57 60 -11 -25 36 44 -2 -1 56 -15 -18 59 43 -31 -7 -44 47 -9 -12 -36 -51 -26 53 -48 55 -24 -8 -19 -35 -42 -10 -5
right_child=2 3 6 9 7 12 21 18 16 32 20 28 15 19 23 -17 40 30 -20 -21 -22 -23 54 33 51 -27 -28 -29 -30 42 -32 -33 -34 58 49 -37 -38 -39 -40 -41 41 -43 45 -45 -46 -47 52 -49 -50 50 -52 -53 -54 -55 -56 -57 -58 -59 -60 -61 -62 -63
leaf_value=-0.20306639896576451 2.8943139249754726 0.57421435802421017 1.4561491793972428 0.16352259659652579 0.14376479515860444 0.80402397653554447 0.90020920596601872 0.068605598956511638 0.92427822340090404 -0.059077314541854525 -0.032777611784156634 0.48531286004284646 0.42794699081224502 0.39756536269890147 0.58342259010881781 0.12181326338235517 1.6633868100307958 0.84452252079983325 -0.31631035896202758 0.11766455121292636 0.61008387221802529 0.72444949976930328 0.94772101484347449 0.99815902853704164 0.24362888475311781 2.8725485513266107 -0.14017719998021547 1.7802637027724204 1.7933688952062548 0.58936649503292526 2.728610499951833 1.3468435412684927 0.155900689836208 1.2623396478788049 0.033207813626406166 0.94894040281298497 -0.87194245567745543 -0.47001507679687493 2.0915164724073612 1.3803042577569238 1.3141738954044442 3.7056455732454916 0.43648524614310991 1.0728669060588765 1.2027202492744671 0.79615833863764318 -0.12058403784339014 1.3691168425941658 0.28227368709228479 0.43966887105108132 0.88653119188800111 -0.074010757381982997 -0.40943504429895389 0.85207614216941419 -0.58697243117283726 -0.40327692642385948 1.1922446368498021 0.95171644705019842 2.5205816676545747 2.0394607769047579 1.1868391235572453 1.1603222045406758
leaf_weight=10445 133 1696 440 5874 1878 262 295 304 213 10607 690 2793 2470 1115 199 1212 547 1158 30594 5784 1362 418 256 1573 2430 2395 10801 87 165 578 99 661 2657 252 111 707 26 25988 344 445 308 760 651 505 258 99 5410 67 2635 857 1036 3070 8188 99 81426 21941 617 1261 417 243 881 93
leaf_count=10445 133 1696 440 5874 1878 262 295 304 213 10607 690 2793 2470 1115 199 1212 547 1158 30594 5784 1362 418 256 1573 2430 2395 10801 87 165 578 99 661 2657 252 111 707 26 25988 344 445 308 760 651 505 258 99 5410 67 2635 857 1036 3070 8188 99 81426 21941 617 1261 417 243 881 93
internal_value=-0.000772484 -0.00235314 0.0188288 0.00381473 -0.00326485 0.0128785 0.0271411 -0.00165585 0.0297476 0.00177137 0.00890855 0.00452434 0.00924022 0.000502237 0.0181469 0.00772892 0.0260684 0.0125663 -0.00252103 0.00291803 0.00558122 0.016823 -0.00407216 0.0216694 -0.00138114 0.0345414 -0.000887515 0.00256962 0.00855646 0.00942152 0.0151946 0.022265 -8.43767e-05 0.0227877 0.0142557 0.0161084 0.0261321 -0.003226 0.0196051 0.00719745 0.0296609 0.031804 0.0123486 0.0150831 0.0214151 0.0084 -0.00217799 0.00471128 0.00381203 0.0133134 0.0140438 0.000654544 -0.00236631 -0.00099746 -0.00436893 -0.00359215 0.0171491 0.0145329 0.0278849 0.0363793 0.0192687 0.0025331
internal_weight=260886 241418 19468 31090 210328 11346 8122 70272 6448 22189 8901 8925 6742 20110 4604 5515 3613 4214 50162 7344 4687 1674 140056 2441 19568 2835 12766 1965 2958 4303 2518 1755 13264 2242 2163 1227 159 36433 1256 1560 1858 1311 1833 1083 520 750 14068 371 3325 2004 1893 5500 13697 5509 103623 22197 912 2419 669 551 1094 5967
internal_count=260886 241418 19468 31090 210328 11346 8122 70272 6448 22189 8901 8925 6742 20110 4604 5515 3613 4214 50162 7344 4687 1674 140056 2441 19568 2835 12766 1965 2958 4303 2518 1755 13264 2242 2163 1227 159 36433 1256 1560 1858 1311 1833 1083 520 750 14068 371 3325 2004 1893 5500 13697 5509 103623 22197 912 2419 669 551 1094 5967
cat_boundaries=0 1 2 4 6 8 10 12 14 16 18 20 21 22 23 25 27 28 29 31
cat_threshold=3221236224 3221268992 674343640 99349 571587216 32919 536969280 33927 672766488 99669 1109953024 33300 536936448 32903 2955887104 37813 671160856 208 32768 129 2 512 4 2239759395 145472 559616 98629 1 1 2048 1024
is_linear=0
shrinkage=0.05


Tree=8
num_leaves=63
num_cat=20
split_feature=10 11 11 0 0 0 14 13 14 14 11 10 14 0 0 15 6 14 14 1 6 14 13 11 10 1 5 13 14 14 4 13 14 15 10 14 15 14 13 1 1 14 10 14 14 10 1 13 11 4 0 5 13 13 5 1 1 14 8 15 1 7
split_gain=2836.32 521.019 295.468 126.649 118.356 97.4789 60.7146 56.6463 50.8613 48.8564 40.348 37.632 32.0486 25.6226 20.478 19.5828 17.8458 16.0895 15.5818 15.1687 14.1161 13.792 12.9464 19.9512 12.8631 12.4093 12.3318 13.1768 12.3408 11.4944 11.352 10.6324 10.2581 10.2569 10.2531 9.97174 9.6595 9.46369 9.84214 9.35842 9.33158 9.3062 8.39996 8.36445 8.33994 7.96305 10.4939 7.8974 9.05397 7.69869 7.56772 7.56488 7.48043 7.44781 7.36948 7.29156 7.11451 7.09528 7.0726 7.03877 7.02889 6.88174
threshold=27.071428298950199 41.875000000000007 15.660714626312258 2.5000000000000004 2.5000000000000004 2.5000000000000004 0 6.0001652240753183 1 2 22.553571701049808 55.785715103149421 3 2.5000000000000004 6.5000000000000009 4 30.500000000000004 5 6 3.5000000000000004 34.500000000000007 7 20.217991828918461 67.910717010498061 1.0714285969734194 1.5000000000000002 0.92577287554740917 35.313692092895515 8 9 1.4100000262260439 25.691649436950687 10 11 41.357141494750984 12 13 14 15.858480453491213 11.500000000000002 7.5000000000000009 15 21.071428298950199 16 17 63.357141494750984 1.5000000000000002 14.767823696136476 49.982143402099616 1.4100000262260439 1.5000000000000002 0.90411844849586498 23.677269935607914 12.755277156829836 1.0656164288520815 8.5000000000000018 1.5000000000000002 18 33.500000000000007 19 9.5000000000000018 21.500000000000004
decision_type=2 2 2 2 2 2 1 2 1 1 2 2 1 2 2 1 2 1 1 2 2 1 2 2 2 2 2 2 1 1 2 2 1 1 2 1 1 1 2 2 2 1 2 1 1 2 2 2 2 2 2 2 2 2 2 2 2 1 2 1 2 2
left_child=2 4 7 17 8 10 11 21 15 16 18 14 26 20 19 25 55 45 -4 -5 37 36 23 53 49 -2 -7 61 -29 40 59 56 33 -15 -17 -20 43 38 -9 -32 -26 50 -14 -1 -38 46 -3 48 -21 -12 -10 -44 -48 -13 -45 -6 -18 -34 -58 -24 -19 -28
right_child=1 3 5 6 9 12 -8 13 41 -11 24 22 42 32 -16 34 31 60 35 47 -22 -23 30 -25 29 -27 27 28 -30 -31 39 -33 57 -35 -36 -37 44 -39 -40 -41 -42 -43 51 54 -46 -47 52 -49 -50 -51 -52 -53 -54 -55 -56 -57 58 -59 -60 -61 -62 -63
leaf_value=0.13294910947649594 0.46768364146777136 0.72831315868152979 -0.04037432971064691 0.48342965921466113 0.42797153198385252 2.2165722898748621 0.53173801552252797 0.12101047928366129 0.73695544318231698 0.1421797620019819 0.63314496445898816 1.3971116583149343 -0.17752670730981263 0.1081902086813079 1.2679188075422139 0.84002611553354734 0.074834154574430711 2.0129748715298823 0.92216201362512662 0.7384462888644151 0.57830512639168119 -0.53793005961419527 4.019969459095031 1.9023753992573931 0.83278746645119295 1.5013344178873822 0.025915627029517076 1.8851828453917872 -0.2070574960541702 0.3264402405021179 1.5917140636669667 1.7001789831758811 -0.22515384812844258 1.1850553503768344 1.7849356802381449 0.23354416523940738 -0.044857201323828422 -0.12606026357849753 2.10653057916941 -0.026199480948024535 0.52042357315743693 0.57354461922787114 2.0066011796125687 -0.32020697513800633 -0.49452598207908899 4.2517909274988979 1.7940293095023021 0.89683928843562455 1.1155281075553563 3.3620645376328038 1.1994788094977595 -0.012125191163679789 2.5655688472710874 1.2799137255340503 2.1610303618244733 0.21003534945429597 0.47443133481606736 -0.36669688251973942 0.69305204704723822 2.93598371405451 0.17398335025962763 0.20945950399711225
leaf_weight=2271 71 146 2148 582 2983 175 1245 2636 1122 4029 35 126 13557 324 666 853 220 266 407 684 643 98847 520 286 1065 711 7986 158 111 1242 817 222 13206 71 151 6818 2020 11373 71 60 975 943 22 4492 29633 765 1552 1142 243 67 1071 5978 215 780 20 1342 2369 23144 1127 307 44 3731
leaf_count=2271 71 146 2148 582 2983 175 1245 2636 1122 4029 35 126 13557 324 666 853 220 266 407 684 643 98847 520 286 1065 711 7986 158 111 1242 817 222 13206 71 151 6818 2020 11373 71 60 975 943 22 4492 29633 765 1552 1142 243 67 1071 5978 215 780 20 1342 2369 23144 1127 307 44 3731
internal_value=-0.000865245 0.0142733 -0.00266064 0.0230825 0.00892762 0.00100562 0.0195977 -0.00352451 0.0154795 0.0063041 0.00469664 0.021619 -0.000478909 -0.00210986 0.0180178 0.022255 0.00850175 0.0317805 0.00300704 0.0160487 -0.000347417 -0.00405487 0.0258184 0.0298154 0.00937648 0.028312 0.00153603 0.0013449 0.0122862 0.00883303 0.0230223 0.0109472 -0.00281603 0.00512346 0.017759 0.00411541 -0.00324689 -0.000678268 0.0019746 0.0190593 0.0111463 0.011513 -0.00173174 -0.00153546 -0.00361467 0.0331138 0.0315133 0.0180546 0.0214833 0.0268627 0.0133613 -0.000175001 0.0325778 0.026181 -0.00277753 0.0062948 0.0103122 -0.00290292 0.010861 0.0272249 0.0185937 0.00109371
internal_weight=260886 27660 233226 10446 17214 44475 7458 188751 4922 12292 12757 6213 31718 51468 3317 1786 8263 2988 9373 2651 14723 137283 2896 1192 3384 782 12161 11986 269 3282 1704 3938 36745 395 1004 7225 38436 14080 2707 877 2040 3136 19557 6783 31653 2678 1913 2069 927 102 2193 6000 1767 906 4512 4325 3716 36350 3496 827 310 11717
internal_count=260886 27660 233226 10446 17214 44475 7458 188751 4922 12292 12757 6213 31718 51468 3317 1786 8263 2988 9373 2651 14723 137283 2896 1192 3384 782 12161 11986 269 3282 1704 3938 36745 395 1004 7225 38436 14080 2707 877 2040 3136 19557 6783 31653 2678 1913 2069 927 102 2193 6000 1767 906 4512 4325 3716 36350 3496 827 310 11717
cat_boundaries=0 2 4 6 8 9 11 13 15 16 18 19 20 22 23 25 27 29 31 33 34
cat_threshold=3221236224 32769 3221268992 128 3759254096 33925 542763664 100183 1 3221268992 1 2508203015 199688 2956935680 37813 512 813275408 34199 512 4 35328 32768 1 671161880 2258 706416728 33799 805569024 17 2147484160 160 2828081432 116052 1
is_linear=0
shrinkage=0.05


Tree=9
num_leaves=63
num_cat=17
split_feature=10 11 11 6 0 0 13 14 14 11 14 14 9 14 0 6 14 0 6 14 14 12 14 5 11 12 6 7 14 10 6 10 12 14 4 11 12 4 13 9 14 7 5 14 13 0 5 14 0 7 4 6 8 14 0 10 14 0 13 13 14 0
split_gain=2486.48 460.218 275.484 113.524 97.4249 93.4574 49.3837 41.2852 40.8108 39.6159 31.4302 31.0898 29.0022 23.2125 22.0387 21.1026 17.1293 16.1529 14.868 14.7327 13.8934 13.7468 12.6874 12.4802 12.3152 11.8977 11.5017 10.5284 10.4795 10.1387 9.64116 8.97238 8.66125 8.53274 20.7219 17.7306 7.99122 7.67026 7.64539 7.37297 7.34252 7.28797 7.2684 6.62073 6.56948 6.45727 6.38865 6.30765 6.22797 6.22061 6.11135 6.04671 6.03302 5.89324 5.76606 5.59532 5.49096 5.47315 5.4422 5.39973 5.06351 4.95533
threshold=27.071428298950199 41.875000000000007 14.517857074737551 55.500000000000007 2.5000000000000004 2.5000000000000004 8.3059468269348162 0 1 21.839285850524906 2 3 50.500000000000007 4 2.5000000000000004 13.500000000000002 5 6.5000000000000009 32.500000000000007 6 7 2.87434995174408 8 0.9316273331642152 22.803571701049808 1.9333271384239199 25.500000000000004 58.500000000000007 9 20.785714149475101 94.500000000000014 49.214284896850593 24.958537101745609 10 1.2649999856948855 1.7678571343421938 11.50258779525757 1.4100000262260439 14.5064754486084 46.500000000000007 11 41.500000000000007 0.96197178959846508 12 35.313692092895515 2.5000000000000004 0.90411844849586498 13 2.5000000000000004 63.500000000000007 1.119999945163727 67.500000000000014 57.500000000000007 14 6.5000000000000009 20.214285850524906 15 3.5000000000000004 23.677269935607914 16.85551738739014 16 6.5000000000000009
decision_type=2 2 2 2 2 2 2 1 1 2 1 1 2 1 2 2 1 2 2 1 1 2 1 2 2 2 2 2 1 2 2 2 2 1 2 2 2 2 2 2 1 2 2 1 2 2 2 1 2 2 2 2 2 1 2 2 1 2 2 2 1 2
left_child=2 4 6 11 8 9 15 18 27 19 23 14 38 32 58 22 52 31 -6 50 21 -11 -1 -7 -25 37 56 39 -17 -12 45 36 -8 34 -24 -36 -16 -26 -5 51 59 -23 -35 -28 54 -18 -31 -21 -44 -40 -4 -2 -14 -10 57 -52 -15 -20 -3 -13 -33 -48
right_child=1 3 5 12 7 10 13 -9 53 20 29 40 16 26 17 28 30 -19 44 47 -22 41 33 24 25 -27 43 -29 -30 46 -32 60 -34 42 35 -37 -38 -39 49 -41 -42 -43 48 -45 -46 -47 61 -49 -50 -51 55 -53 -54 -55 -56 -57 -58 -59 -60 -61 -62 -63
leaf_value=-0.56103355663348553 0.88109017140508927 1.4541345561622059 1.0564342748779443 1.2349695713860853 0.35293874239649026 2.1046848063252366 0.51027933004215509 0.10981658546923995 0.35622743774809407 3.0226636173835537 -0.1848317375915407 0.7798083607371874 1.414949218036095 -0.030194918922232989 0.78124620705169168 -0.020638730498457096 2.4581261596191717 1.3610625034325339 0.59458883174437072 -0.074990355557177688 0.30008198669097907 0.58600739583376016 -1.1195171106385711 -0.0060072629395741921 0.18247616067581077 0.19653053702404236 0.3514365351037434 1.8135471057835013 -0.23334029128720984 1.7366871182440602 4.5967015051003388 1.3401169238243691 1.9120019592426907 0.058075966953577078 3.4601265176649743 -0.26669386241273324 0.64759877242988617 1.5473457590502715 1.1008781622979698 1.1014191386009431 0.034356888716804035 1.0572053166597821 -0.35076449638358626 -0.03708573806991821 4.3115917741393428 2.1338949438851516 -0.059854716754755413 0.12120546496908723 -0.51514646289083987 2.8362713127926593 0.21246739816078178 2.39561925381143 2.1034441811058611 0.80332149692873756 0.71663898869032527 0.40975621541186158 -0.28557578011600865 0.40935862439013965 2.7016845659245323 0.5711014408387779 0.98770690910915571 0.14389213799429842
leaf_weight=73973 1138 496 399 301 5054 196 1023 3777 365 96 17370 357 382 3447 537 4458 749 617 757 1684 1860 1584 513 9590 80 3893 785 350 16266 25 685 1034 42 1221 184 122 927 163 567 562 183 480 16752 1050 82 641 5240 6230 48102 318 2170 70 938 2437 904 775 12096 1718 92 729 893 1357
leaf_count=73973 1138 496 399 301 5054 196 1023 3777 365 96 17370 357 382 3447 537 4458 749 617 757 1684 1860 1584 513 9590 80 3893 785 350 16266 25 685 1034 42 1221 184 122 927 163 567 562 183 480 16752 1050 82 641 5240 6230 48102 318 2170 70 938 2437 904 775 12096 1718 92 729 893 1357
internal_value=-0.00094574 0.0132285 -0.00262677 0.0215078 0.00820437 0.000534666 -0.00356083 0.00582411 0.0141487 0.00383623 -0.000795749 0.0169011 0.0274056 -0.00110964 0.0188276 -0.00384059 0.029757 0.0175424 0.00775073 0.0023148 0.00809701 0.0108295 -0.00405975 0.00109388 0.000915779 0.00319632 -0.00154935 0.0194131 -0.0023509 -0.00189193 0.026223 0.0161884 0.00602325 -0.00355764 0.00151387 0.0118301 0.0132377 0.01393 0.0206745 0.0179379 0.00969898 0.0100194 -0.00362072 0.00219346 0.0102846 0.0239568 -0.000228029 0.00113326 -0.00369322 0.0183333 0.00509243 0.0157368 0.0348496 0.0100605 0.00994525 0.00432088 -0.00199222 0.00869697 0.0279082 0.0112865 0.0184302 -0.000323633
internal_weight=260886 27660 233226 10446 17214 53192 180034 12292 4922 15278 37914 5865 4581 18443 4596 161591 3395 4008 8515 11258 4020 2160 140867 13922 13726 4136 17378 2120 20724 23992 2075 3391 1065 66894 819 306 1464 243 1186 1770 1269 2064 66075 1835 3461 1390 6622 7914 64854 885 3344 1208 1320 2802 3379 2945 15543 2475 588 1086 1927 6597
internal_count=260886 27660 233226 10446 17214 53192 180034 12292 4922 15278 37914 5865 4581 18443 4596 161591 3395 4008 8515 11258 4020 2160 140867 13922 13726 4136 17378 2120 20724 23992 2075 3391 1065 66894 819 306 1464 243 1186 1770 1269 2064 66075 1835 3461 1390 6622 7914 64854 885 3344 1208 1320 2802 3379 2945 15543 2475 588 1086 1927 6597
cat_boundaries=0 2 4 6 8 10 12 14 16 18 20 21 23 25 27 29 31 33
cat_threshold=3893471824 33925 3758139920 128 544852624 99671 3221236224 32769 2576 1056 3221225472 1 1107855920 33683 538548992 32919 1132504507 224328 3088253448 468 512 537493504 6 704712776 98839 92282887 133128 88359301 155712 536941580 147988 10752 32768
is_linear=0
shrinkage=0.05


Tree=10
num_leaves=63
num_cat=14
split_feature=11 6 6 11 14 8 7 8 14 13 14 14 14 6 6 8 7 14 0 5 1 0 1 11 1 14 1 10 6 0 14 13 0 13 7 1 14 4 4 15 0 9 14 10 6 5 6 13 11 13 14 14 0 13 14 10 8 5 0 11 0 6
split_gain=2194.22 331.493 324.056 101.675 78.4243 76.717 63.6393 33.3104 29.0564 27.4388 26.6793 26.5922 25.5617 23.3191 20.7222 15.23 15.1433 14.4984 14.3588 14.2042 14.1481 12.7138 12.1089 11.9104 11.5506 10.6132 10.4809 10.0558 9.82595 9.79987 9.67582 9.27102 9.23536 9.0918 8.84601 10.3853 8.73975 23.0838 14.0598 12.7219 8.59992 8.50093 8.19486 7.97931 7.59323 7.45437 7.26657 7.23355 7.2224 7.03823 7.09985 6.8486 6.75145 6.60885 6.55722 6.48271 6.34996 6.32422 6.11124 5.941 6.66426 5.87959
threshold=28.553571701049808 20.500000000000004 46.500000000000007 13.660714626312258 0 53.500000000000007 23.500000000000004 43.500000000000007 1 4.9102392196655282 2 3 4 35.500000000000007 26.500000000000004 80.500000000000014 40.500000000000007 5 2.5000000000000004 0.92789101600646984 8.5000000000000018 2.5000000000000004 1.5000000000000002 1.0000000180025095e-35 1.5000000000000002 6 2.5000000000000004 1.0000000180025095e-35 62.500000000000007 2.5000000000000004 7 35.313692092895515 3.5000000000000004 25.691649436950687 30.500000000000004 1.5000000000000002 8 1.2649999856948855 1.4950000047683718 9 2.5000000000000004 35.500000000000007 10 1.0000000180025095e-35 30.500000000000004 0.93819776177406322 33.500000000000007 35.313692092895515 19.875000000000004 8.7850580215454119 11 12 2.5000000000000004 20.217991828918461 13 21.214285850524906 37.500000000000007 0.99345636367797863 2.5000000000000004 67.910717010498061 2.5000000000000004 91.500000000000014
decision_type=2 2 2 2 1 2 2 2 1 2 1 1 1 2 2 2 2 1 2 2 2 2 2 2 2 1 2 2 2 2 1 2 2 2 2 2 1 2 2 1 2 2 1 2 2 2 2 2 2 2 1 1 2 2 1 2 2 2 2 2 2 2
left_child=1 3 4 9 7 12 13 34 26 23 16 19 22 25 42 30 46 28 54 -5 24 -13 31 36 27 -3 -7 -9 -15 43 52 -4 -16 -18 47 -36 37 -1 39 -39 -24 -12 -6 -21 -37 -27 -8 -2 -31 -20 -51 -22 -10 56 -11 -23 -42 -38 -26 60 -28 -17
right_child=2 6 5 11 14 8 10 20 15 18 41 21 -14 17 32 61 33 -19 49 29 51 55 40 -25 58 45 59 -29 -30 48 -32 -33 -34 -35 35 44 57 38 -40 -41 53 -43 -44 -45 -46 -47 -48 -49 -50 50 -52 -53 -54 -55 -56 -57 -58 -59 -60 -61 -62 -63
leaf_value=-1.0635412551066425 0.37182243220404215 -0.12228069806991418 0.15184614876365971 2.113844370166452 0.26603220514595588 0.93334023725691662 0.32501533738241711 3.3106422489995824 1.9964718479351509 0.0022900206938910816 0.13758476101398323 0.021769533189675186 0.74335497299717213 0.55295787679396757 0.67411837888603021 2.2959127216693567 0.81285946561488831 0.20918963591535694 -0.39549030853002737 1.3550795444192978 1.1788332788477212 -0.20183765218315802 1.4998453707598389 -0.53298187880181125 1.5341276359880727 1.2698407298022862 1.5678128911391243 0.32915835005999466 2.5448797376947887 -0.096253446144785981 0.92202657292071233 2.5548652684457318 0.36207337015192276 2.271964277303979 0.0059557823319799632 0.53935489995958363 0.10401848842842031 0.097367075499484257 0.33528314014531324 4.3192622435521546 0.80823125444967081 0.42215713146163947 -0.1581107810010205 0.26853751213277616 0.71323809529587989 0.069094598447021621 0.63791155809661737 2.1227539690316428 0.11983699472969991 0.26650528834006565 -0.27214167445184057 0.46103527562865348 1.5732955980739174 1.4368934131226858 -0.20005862223112644 -0.027034237996057971 1.1000076065722553 -0.66690570070853483 1.0306166252607551 2.2809824099226925 1.1121434288565701 4.4882065492760486
leaf_weight=609 1754 6418 185 220 2614 151 2776 30 938 4683 5023 5023 1212 833 1796 634 1060 1750 34235 137 550 18355 748 93397 364 128 519 202 122 7220 236 36 2246 84 169 951 954 58 260 120 437 681 690 2550 1779 10448 1388 91 4046 677 7787 342 794 606 10502 3537 812 12612 1118 397 237 555
leaf_count=609 1754 6418 185 220 2614 151 2776 30 938 4683 5023 5023 1212 833 1796 634 1060 1750 34235 137 550 18355 748 93397 364 128 519 202 122 7220 236 36 2246 84 169 951 954 58 260 120 437 681 690 2550 1779 10448 1388 91 4046 677 7787 342 794 606 10502 3537 812 12612 1118 397 237 555
internal_value=-0.00102528 -0.00245765 0.0136543 -0.0031769 0.00916031 0.021427 0.00238986 0.0128125 0.025946 -0.00372841 0.00543407 -0.000950157 0.0164321 0.000688105 0.00548124 0.0230076 0.0079842 0.005 -0.00285001 0.00080272 0.0173714 -0.0018728 0.0190649 -0.00419915 0.0200292 1.76414e-06 0.0326332 0.00965517 0.00992228 0.000604528 0.0203811 0.00789593 0.00788966 0.0130944 0.0103352 0.0120576 -0.00287176 0.00152791 0.0102968 0.0211236 0.0200864 0.00304165 0.00255145 0.00331783 0.0128022 0.000974871 0.00659942 0.00762873 -4.26073e-05 -0.00331963 -0.00202859 0.0122646 0.0216935 0.0182615 -0.00152947 -0.00239403 0.0203403 -0.00321008 0.0216532 0.0345056 0.0319048 0.0275484
internal_weight=260886 237693 23193 206982 14696 8497 30711 7350 4461 165894 11012 41088 4036 19699 7346 3157 5308 2705 57884 14173 2606 26915 2824 108010 1714 16994 1304 232 955 13953 1968 221 4042 1144 4744 2899 14613 1047 438 178 2603 5704 3304 2687 2730 10576 4164 1845 11266 42699 8464 892 1732 1855 15185 21892 1249 13566 1482 1153 756 1189
internal_count=260886 237693 23193 206982 14696 8497 30711 7350 4461 165894 11012 41088 4036 19699 7346 3157 5308 2705 57884 14173 2606 26915 2824 108010 1714 16994 1304 232 955 13953 1968 221 4042 1144 4744 2899 14613 1047 438 178 2603 5704 3304 2687 2730 10576 4164 1845 11266 42699 8464 892 1732 1855 15185 21892 1249 13566 1482 1153 756 1189
cat_boundaries=0 2 3 5 7 9 11 13 15 17 18 20 22 23 25
cat_threshold=3221268992 32768 2147483648 707889872 99479 811129488 98583 3221268992 32768 570661400 165 398746919 227336 1610656256 32769 67113472 1664 4 676925536 1431 68112 1028 3221234176 3088396860 132336
is_linear=0
shrinkage=0.05


Tree=11
num_leaves=63
num_cat=20
split_feature=10 11 11 6 0 0 13 11 14 14 0 14 0 14 9 15 14 1 1 14 10 5 14 1 14 13 13 14 6 11 15 1 14 14 10 13 14 9 5 8 13 13 5 1 14 13 6 2 14 4 13 11 14 0 1 15 15 5 8 0 15 11
split_gain=1943.14 356.831 247.839 97.7298 74.2632 70.9987 47.6769 33.8028 32.3449 32.0274 27.1826 27.0947 26.4938 24.2242 21.5539 16.4128 14.6374 14.2324 16.8481 13.1163 12.3317 12.1671 11.2931 11.2672 10.8142 10.8072 10.2123 11.8517 10.1291 9.94003 9.58165 9.42573 12.0736 8.38015 8.34451 8.01536 7.97408 7.53765 7.47297 7.45287 7.11324 6.95985 6.83797 6.67799 6.97219 6.49048 6.44651 6.42762 6.34027 6.1921 6.16187 6.10164 6.02702 5.9717 6.3104 5.89048 5.83725 5.79822 5.79236 5.68928 5.56127 5.48163
threshold=27.071428298950199 41.875000000000007 14.517857074737551 58.500000000000007 2.5000000000000004 2.5000000000000004 4.9102392196655282 22.553571701049808 0 1 2.5000000000000004 2 2.5000000000000004 3 60.500000000000007 4 5 3.5000000000000004 8.5000000000000018 6 1.0714285969734194 0.9316273331642152 7 2.5000000000000004 8 15.292280197143556 9.0203695297241229 9 26.500000000000004 22.803571701049808 10 7.5000000000000009 11 12 20.785714149475101 14.261424064636232 13 44.500000000000007 0.93819776177406322 85.500000000000014 22.216080665588382 20.217991828918461 0.98229002952575695 1.5000000000000002 14 11.899129390716555 26.500000000000004 1.0000000180025095e-35 15 1.4100000262260439 20.217991828918461 37.303571701049812 16 6.5000000000000009 4.5000000000000009 17 18 1.0656164288520815 44.500000000000007 3.5000000000000004 19 36.303571701049812
decision_type=2 2 2 2 2 2 2 2 1 1 2 1 2 1 2 1 1 2 2 1 2 2 1 2 1 2 2 1 2 2 1 2 1 1 2 2 1 2 2 2 2 2 2 2 1 2 2 2 1 2 2 2 1 2 2 1 1 2 2 2 1 2
left_child=2 5 6 10 7 9 22 19 28 15 41 21 24 17 23 -2 -16 -12 47 45 49 -6 30 -5 25 -8 -14 -28 -7 -23 48 32 37 51 -13 -25 58 -31 -21 -18 -17 -3 -24 -30 50 -4 -26 -19 -1 -9 61 -11 -48 54 -15 -20 -41 -50 -22 -46 -55 -45
right_child=1 3 4 14 11 8 12 20 -10 33 13 34 26 53 16 40 39 18 55 38 36 29 42 35 46 -27 27 -29 43 31 -32 -33 -34 -35 -36 -37 -38 -39 -40 56 -42 -43 -44 44 59 -47 52 -49 57 -51 -52 -53 -54 60 -56 -57 -58 -59 -60 -61 -62 -63
leaf_value=0.58945274709055517 1.3635282570762537 1.308131539147354 0.24613978010186766 0.77672852920798729 1.9008745176548585 0.29267774951419645 0.1405500146786782 0.41527193418374653 0.057504685116087174 0.78576997890776168 0.62348834504573303 -0.16929275006702815 -0.35383893039528364 0.084408299969056619 1.9002836193115393 0.79301717048962994 2.4682417736733133 1.0608551345229162 0.98284152157329874 1.5824269881106663 0.48870847448938087 -0.0059469805807723505 -0.15439921116089372 1.175578393675847 -0.14204279818990775 1.9103300085139381 0.56112140361420326 -0.21601950460454999 0.12136215545375995 0.56844177792668704 -0.44025660676844436 0.028221042206670533 0.12530198499647707 0.44713889333227419 -0.012297660932016058 1.6824959523407998 0.2659879584710404 1.2914707668061731 0.068869051669182377 3.9585354220157756 1.6143007514716132 1.7653035927313778 -0.51287713954885317 0.3302957623030256 0.55577925364974734 0.79074138489227597 0.41558625441325686 1.3408167358711605 -0.24321176884676163 2.9256334843779039 1.4728482414825155 1.0731397945439505 -0.041828422346669523 0.93896238377368446 0.43641701796913906 0.81486394653856054 2.5524559140308423 2.1046842596971791 0.96984433797642344 0.37393288264299535 0.64280721941731311 0.63459067437320604
leaf_weight=735 546 706 2586 178 196 3493 2225 35 3095 2186 732 17370 40167 323 697 561 997 1124 646 110 1535 9590 1631 359 16591 69 492 9733 403 758 19480 1817 1384 1230 6622 1065 1247 177 8742 571 63 232 84567 710 841 456 467 512 3011 67 214 336 846 93 1105 742 159 20 500 2887 205 649
leaf_count=735 546 706 2586 178 196 3493 2225 35 3095 2186 732 17370 40167 323 697 561 997 1124 646 110 1535 9590 1631 359 16591 69 492 9733 403 758 19480 1817 1384 1230 6622 1065 1247 177 8742 571 63 232 84567 710 841 456 467 512 3011 67 214 336 846 93 1105 742 159 20 500 2887 205 649
internal_value=-0.00108411 0.0114461 -0.00257017 0.0187364 0.000428447 0.00702219 -0.00345613 0.00337151 0.00499024 0.0120967 0.0149065 -0.000757505 -0.00244298 0.0135607 0.0248435 0.0193644 0.0278177 0.0158311 0.0173876 0.00211703 0.00778073 0.000996984 -0.00410959 0.0203433 -0.000912963 0.00231337 -0.00305624 -0.00164548 0.00647496 0.000821068 -0.00312522 0.00286992 0.00498275 0.00975279 -0.00177527 0.0218258 0.00724863 0.00933862 0.00113857 0.0246488 0.0139904 0.0227719 -0.00437419 0.0077805 0.00825222 0.0049443 -0.0013269 0.0208252 -0.000817845 0.024902 0.0111087 0.0114494 0.00204493 0.00847926 0.00718487 0.0133357 0.0286301 -0.0018267 0.00918093 0.00699839 0.0149664 0.00993745
internal_weight=260886 27660 233226 10446 53192 17214 180034 15278 12292 4922 6420 37914 70590 5482 4026 1170 2424 3756 3024 11894 3384 13922 109444 1602 20198 2294 50392 10225 9197 13726 23246 4136 2319 3752 23992 1424 3282 935 8852 1727 624 938 86198 5704 5301 3042 17904 1636 3766 102 1573 2522 1313 1726 1428 1388 730 3031 2035 3728 298 1359
internal_count=260886 27660 233226 10446 53192 17214 180034 15278 12292 4922 6420 37914 70590 5482 4026 1170 2424 3756 3024 11894 3384 13922 109444 1602 20198 2294 50392 10225 9197 13726 23246 4136 2319 3752 23992 1424 3282 935 8852 1727 624 938 86198 5704 5301 3042 17904 1636 3766 102 1573 2522 1313 1726 1428 1388 730 3031 2035 3728 298 1359
cat_boundaries=0 2 3 5 7 8 9 11 13 15 17 18 20 22 24 25 27 29 30 31 32
cat_threshold=3895585364 33927 2147527168 544852624 99671 3221228032 32769 1 2147483648 1644726800 33426 2821669376 33717 2684424728 208 2560 1024 1 536873472 32773 2047541336 32903 2792462608 33175 3221258752 262656 16 33818756 98854 2 1 4
is_linear=0
shrinkage=0.05


Tree=12
num_leaves=63
num_cat=14
split_feature=10 6 11 14 0 11 13 0 11 14 14 0 14 14 10 0 10 10 1 15 1 1 11 1 14 5 5 5 0 13 11 14 6 11 14 12 10 1 12 14 14 4 14 8 4 15 14 0 5 1 1 13 0 2 8 0 1 0 4 1 1 1
split_gain=1698.11 297.115 232.137 92.5714 70.3267 63.4718 42.7908 37.4204 32.5855 25.6119 23.5843 22.2427 21.4194 19.9095 17.3913 15.9128 15.7746 13.6105 12.5722 14.7661 12.3019 16.9041 11.7837 11.3596 11.3499 10.9583 10.8997 12.9837 10.5221 10.5941 13.6966 10.3181 10.2151 9.67289 9.59822 9.62843 9.13295 8.36476 8.10751 7.96112 7.89463 7.75651 7.34721 7.32049 7.25663 7.16221 13.8226 7.14952 7.10367 6.97749 6.90678 6.74035 6.91192 6.65713 6.49856 6.31714 5.98347 5.98234 5.88705 5.69084 5.33321 5.26276
threshold=27.071428298950199 46.500000000000007 13.875000000000002 0 2.5000000000000004 38.375000000000007 4.9102392196655282 2.5000000000000004 20.660714149475101 1 2 2.5000000000000004 3 4 69.642856597900405 2.5000000000000004 1.0714285969734194 54.928571701049812 1.5000000000000002 5 8.5000000000000018 1.5000000000000002 1.0000000180025095e-35 3.5000000000000004 6 0.9316273331642152 1.0001190900802615 1.01952201128006 6.5000000000000009 19.436557769775394 67.910717010498061 7 28.500000000000004 19.696428298950199 8 26.836364746093754 19.500000000000004 6.5000000000000009 2.075931310653687 9 10 1.310000002384186 11 38.500000000000007 1.4100000262260439 12 13 2.5000000000000004 0.94065940380096447 10.500000000000002 8.5000000000000018 3.7652686834335332 2.5000000000000004 1.0000000180025095e-35 50.500000000000007 6.5000000000000009 6.5000000000000009 2.5000000000000004 1.4100000262260439 10.500000000000002 8.5000000000000018 3.5000000000000004
decision_type=2 2 2 1 2 2 2 2 2 1 1 2 1 1 2 2 2 2 2 1 2 2 2 2 1 2 2 2 2 2 2 1 2 2 1 2 2 2 2 1 1 2 1 2 2 1 1 2 2 2 2 2 2 2 2 2 2 2 2 2 2 2
left_child=2 5 6 7 8 10 22 14 31 25 15 32 20 18 23 -2 44 -9 -5 -20 21 -7 26 -3 43 -6 45 -28 29 30 -19 -4 40 -27 35 -13 -11 57 58 -14 -8 -31 -34 -18 -10 46 -1 -12 -33 -25 53 -24 -53 -17 -21 -38 -55 -23 -35 -41 -56 -15
right_child=1 3 4 13 9 12 11 17 16 36 47 34 39 61 -16 50 24 28 19 54 -22 37 51 49 -26 33 27 -29 -30 41 -32 48 42 38 -36 -37 55 -39 -40 59 -42 -43 -44 -45 -46 -47 -48 -49 -50 -51 -52 52 -54 56 60 -57 -58 -59 -60 -61 -62 -63
leaf_value=1.1238144876535436 0.72424610909245324 1.2821542394522574 0.0088164370645205988 0.24556687907021973 1.8132771206867357 0.24441481246325855 0.0047284942884759963 0.75720125405900529 0.64483808707635282 -0.18001506150094393 0.42474747010461861 -0.17943923876226917 -0.14944966020618197 0.13570418564420683 4.2226500062475738 0.3112793569482023 0.40992304980944455 0.96350209747206272 0.59518856396874165 0.89509031916240955 0.79944473885101908 1.2602188890329951 -0.58068892788427806 1.7706159431262567 0.14521251800561308 -0.047420236045436923 1.8655339793101469 -0.11810742995057162 2.5083131405489292 4.2365013670855811 1.5057187912860934 1.7966940665744169 0.61308682831068784 0.11006998579560068 -0.34161527429713168 1.1470772647226508 -0.083137723218782961 1.1239120571236303 0.11303441955270682 0.3839797273730805 -0.17744555778075988 1.1150299525469507 0.039404991387770726 0.71903402868558342 2.7793518042485723 -0.72286439612300502 -0.37176951113985779 0.085206478188986329 0.20539890721352028 1.1847008485545261 0.2022696651760125 -0.19425910656740497 -0.39987370312172693 0.38139303124070234 1.5698303414036581 0.1087592408549099 0.76092506488108336 0.72229260008944196 1.2579655751895615 0.74550615992591773 0.99359575256323773 0.70101214298370629
leaf_weight=315 1665 350 6595 199 203 260 6740 891 48 17428 1106 8303 234 295 547 2793 2079 504 478 950 1450 139 61046 1026 1884 8400 231 548 534 300 199 108 431 119 38399 27 7181 757 6683 1142 10995 766 627 1002 77 9386 4133 3829 5061 281 1754 9483 23676 1065 505 1836 440 1399 182 169 355 1278
leaf_count=315 1665 350 6595 199 203 260 6740 891 48 17428 1106 8303 234 295 547 2793 2079 504 478 950 1450 139 61046 1026 1884 8400 231 548 534 300 199 108 431 119 38399 27 7181 757 6683 1142 10995 766 627 1002 77 9386 4133 3829 5061 281 1754 9483 23676 1065 505 1836 440 1399 182 169 355 1278
internal_value=-0.00113874 0.0105748 -0.00252794 0.0177638 0.000186291 0.00683936 -0.00344471 0.022071 0.00291503 -0.000907881 0.00488381 -0.00243521 0.0112973 0.0119533 0.0271234 0.00660864 0.00625737 0.0186537 0.0147837 0.0158916 0.0132316 0.0153522 -0.00405255 0.0245715 0.00581571 0.000699813 -0.00273147 0.00302311 0.0206839 0.018827 0.0235917 0.00146889 -0.000982548 0.000547971 -0.00301943 -0.00147482 -0.00185504 0.0167211 0.00192297 0.00615756 -0.00126727 0.0156848 0.00379017 0.00768198 0.0238 -0.00305552 -0.00140288 0.00216886 0.00313864 0.0267138 0.0054263 -0.00425747 -0.00368362 0.00650535 0.0179558 -0.000563936 0.00918605 0.0146034 0.00995016 0.00767979 0.0211046 0.00741314
internal_weight=260886 27660 233226 9458 58886 18202 174340 5398 16854 42032 12652 65522 5550 4060 2204 7717 5090 3194 2487 2288 4005 2555 108818 1657 4965 15587 14613 779 2303 1769 703 11764 18793 15384 46729 8330 26445 2295 6984 1545 17735 1066 1058 3081 125 13834 4448 4935 5169 1307 6052 94205 33159 4298 1810 9017 1505 1538 301 1311 860 1573
internal_count=260886 27660 233226 9458 58886 18202 174340 5398 16854 42032 12652 65522 5550 4060 2204 7717 5090 3194 2487 2288 4005 2555 108818 1657 4965 15587 14613 779 2303 1769 703 11764 18793 15384 46729 8330 26445 2295 6984 1545 17735 1066 1058 3081 125 13834 4448 4935 5169 1307 6052 94205 33159 4298 1810 9017 1505 1538 301 1311 860 1573
cat_boundaries=0 1 3 5 7 9 10 12 14 16 18 20 22 23 25
cat_threshold=3221228032 811190960 99671 2821778000 33925 3221260800 32771 570531904 32769 2 544971160 33687 2244359623 224297 672205336 1108 136315008 1360 3090625052 172274 671423108 66070 1 268441600 1040
is_linear=0
shrinkage=0.05


Tree=13
num_leaves=63
num_cat=18
split_feature=10 7 13 6 14 6 6 14 13 14 0 14 14 6 10 7 9 14 5 15 7 1 0 14 8 0 10 15 15 14 15 14 1 1 12 1 0 14 1 14 1 9 5 0 7 1 1 13 4 1 4 12 14 4 4 14 5 14 8 6 13 2
split_gain=1503.08 305.107 189.97 63.6156 63.494 61.4647 34.5253 31.5346 33.5428 31.2084 30.0912 19.0117 18.9977 15.3433 14.9363 14.5088 13.9512 13.9318 13.663 13.5489 13.5384 13.0024 12.3967 12.3847 11.6178 10.8837 9.84631 9.1343 8.73582 10.5643 8.41329 9.55839 11.2525 8.30007 8.28584 8.0314 7.96959 8.77376 7.67009 9.49883 7.78853 7.05611 6.96299 6.8776 6.80771 6.77297 16.1577 9.08598 8.07625 10.7003 6.68319 6.47013 6.30434 6.16784 6.16537 6.15426 5.91754 5.71927 5.66899 5.61249 5.40113 5.30969
threshold=25.928571701049808 48.500000000000007 6.3624539375305185 34.500000000000007 0 26.500000000000004 12.500000000000002 1 23.677269935607914 2 2.5000000000000004 3 4 59.500000000000007 59.071428298950202 36.500000000000007 53.500000000000007 5 0.98681312799453746 6 16.500000000000004 3.5000000000000004 2.5000000000000004 7 15.500000000000002 2.5000000000000004 67.214286804199233 8 9 10 11 12 7.5000000000000009 1.5000000000000002 13.42350482940674 1.5000000000000002 6.5000000000000009 13 8.5000000000000018 14 10.500000000000002 27.500000000000004 0.96197178959846508 2.5000000000000004 21.500000000000004 9.5000000000000018 10.500000000000002 1.0000000180025095e-35 4.8299999237060556 1.5000000000000002 1.3650000095367434 15.914204120635988 15 1.4100000262260439 2.6750000715255742 16 1.0298678874969485 17 37.500000000000007 12.500000000000002 8.6400690078735369 1.0000000180025095e-35
decision_type=2 2 2 2 1 2 2 1 2 1 2 1 1 2 2 2 2 1 2 1 2 2 2 1 2 2 2 1 1 1 1 1 2 2 2 2 2 1 2 1 2 2 2 2 2 2 2 2 2 2 2 2 1 2 2 1 2 1 2 2 2 2
left_child=2 3 6 11 10 7 17 8 19 13 14 41 27 15 35 58 55 -1 30 -4 42 -12 -21 -10 57 53 34 43 29 45 -19 32 -32 -17 -23 -3 37 -28 39 -35 -40 -2 -9 51 -14 48 47 54 -20 -50 -39 -7 -26 -25 -47 -6 -18 -8 61 -44 -22 -5
right_child=1 4 5 9 16 12 24 20 23 -11 21 -13 44 -15 -16 33 56 18 28 22 60 26 -24 25 52 -27 36 -29 -30 -31 31 -33 -34 38 -36 -37 -38 50 40 -41 -42 -43 59 -45 -46 46 -48 -49 49 -51 -52 -53 -54 -55 -56 -57 -58 -59 -60 -61 -62 -63
leaf_value=-0.47988001796564056 0.26882475143548923 0.45092741227685473 -0.21092192110287811 0.28987841012166499 0.8185754796511473 0.57921463276148166 -0.090677468703406414 0.9805645144021542 0.33453401178673076 0.36740997230509137 1.0292707954967386 0.076341035372594845 -0.019812767578163852 1.3870405431352575 3.1707246042182096 0.20498079730640476 1.2701194679547827 -0.40120069647493789 -0.20175970042587399 0.27776869170761359 -0.11056921192694427 1.0395121834682539 -0.0016309961146148265 2.0379688953805899 0.058895443234171056 1.2951729837656982 1.3279777920660081 0.27141737225281515 -0.4516544814900641 -0.39482427054807379 0.069858759305360299 0.051342912262986456 1.0099463918809615 0.88996340220004255 1.1129265134302331 1.3814625851851945 2.9960440282953327 4.7146673831284378 0.44918582731057105 0.62061307837165958 0.91121509851365856 0.38855029245986816 -0.31466169808227529 0.35740600968571434 0.18901389313972849 1.7720323577360579 -0.41089383321276679 -0.20137392749473493 -1.4323762367291337 2.4494046267985312 1.0195921781137736 1.2077898715989199 -0.074006115305135109 2.7748949247133443 0.12102477610416891 0.45325135716211512 -0.36158093533505126 -0.22134363932527956 0.628760420570876 -0.14281772468916593 0.026929627785020862 0.51360897904531533
leaf_weight=53600 4304 83 5016 1251 1778 1008 4705 302 216 2477 593 3934 3245 1064 882 171 1031 965 3336 4171 7411 471 14143 29 3664 292 257 2037 54904 9688 153 918 179 848 820 1140 225 196 503 847 368 3891 20947 922 2527 232 531 127 31 33 355 120 4320 84 66 448 39 13117 1181 10500 7391 799
leaf_count=53600 4304 83 5016 1251 1778 1008 4705 302 216 2477 593 3934 3245 1064 882 171 1031 965 3336 4171 7411 471 14143 29 3664 292 257 2037 54904 9688 153 918 179 848 820 1140 225 196 503 847 368 3891 20947 922 2527 232 531 127 31 33 355 120 4320 84 66 448 39 13117 1181 10500 7391 799
internal_value=-0.0011947 0.0093427 -0.0025616 0.00621407 0.0174814 -0.000598612 -0.00360928 -0.00111571 0.000358707 0.00927595 0.0210433 0.00381359 0.0030992 0.0109756 0.0256413 0.010005 0.011954 -0.00395362 -0.00349241 5.35779e-05 -0.00187399 0.0177974 0.000684175 0.0118277 -0.00194451 0.0168072 0.0194836 0.00570295 -0.00361707 -0.00250427 0.000372459 0.00308 0.0102047 0.0126836 0.0165724 0.0220646 0.023122 0.0208045 0.0133944 0.015354 0.00958094 0.00518281 -0.00245661 0.00807317 0.00124351 -0.000453506 0.0032636 0.0105294 -0.0015 0.0160937 0.016123 0.0106915 -0.00035947 0.0303982 0.015302 0.00973495 0.0166822 -0.00265459 0.00773599 -0.00252918 -0.000625592 0.00614634
internal_weight=260886 29956 230930 21638 8318 80361 150569 70502 23951 9509 5022 12129 9859 7032 2105 5968 3296 124763 71163 23330 46551 2917 18314 621 25806 405 2324 4087 68948 14044 2215 1250 332 2737 1291 1223 1033 808 2566 1695 871 8195 31749 2050 5772 4356 956 425 3400 64 551 1128 7984 113 298 2226 1070 17822 3231 31447 14802 2050
internal_count=260886 29956 230930 21638 8318 80361 150569 70502 23951 9509 5022 12129 9859 7032 2105 5968 3296 124763 71163 23330 46551 2917 18314 621 25806 405 2324 4087 68948 14044 2215 1250 332 2737 1291 1223 1033 808 2566 1695 871 8195 31749 2050 5772 4356 956 425 3400 64 551 1128 7984 113 298 2226 1070 17822 3231 31447 14802 2050
cat_boundaries=0 1 3 5 7 9 11 12 14 15 16 18 19 21 22 24 26 28 30
cat_threshold=3221228032 1610717720 34261 3355552336 32901 3761302128 33927 570534544 34775 1082172730 93256 4 2048 272 1 1 959339008 17 4 33554560 3 2147483648 3221260288 4 4185165828 42484 706322496 32903 3092480512 500
is_linear=0
shrinkage=0.05


Tree=14
num_leaves=63
num_cat=19
split_feature=10 7 11 6 14 9 13 14 6 14 14 14 14 6 1 13 9 5 9 5 14 1 14 14 6 6 7 13 15 7 4 1 13 1 15 1 1 1 14 15 1 13 14 15 14 11 4 15 14 7 4 4 14 1 13 5 7 1 2 13 11 6
split_gain=1318.85 254.66 195.988 59.8238 54.0806 48.3013 38.732 24.0842 22.5063 21.4142 21.2653 19.8828 16.9893 12.9216 12.845 12.6569 12.6132 12.1109 12.0727 11.8383 10.9419 10.5939 12.4242 11.9242 10.2807 9.86188 9.71049 9.67478 9.39298 8.85258 8.45608 8.26817 8.56585 8.1527 7.86498 8.52976 7.79036 9.54901 7.73719 9.29836 7.58944 7.03427 6.94312 6.86126 10.6428 6.73071 6.64836 6.49353 10.7145 6.43704 6.42741 6.57731 5.83606 12.7156 6.02549 5.73495 5.64378 5.38144 5.21174 6.88109 4.92441 4.92745
threshold=25.928571701049808 50.500000000000007 13.017857074737551 36.500000000000007 0 23.500000000000004 4.9102392196655282 1 58.500000000000007 2 3 4 5 14.500000000000002 1.5000000000000002 23.677269935607914 44.500000000000007 0.92789101600646984 32.500000000000007 0.98352354764938366 6 8.5000000000000018 7 8 26.500000000000004 27.500000000000004 31.500000000000004 23.677269935607914 9 23.500000000000004 1.3650000095367434 3.5000000000000004 16.85551738739014 9.5000000000000018 10 10.500000000000002 8.5000000000000018 1.5000000000000002 11 12 6.5000000000000009 18.225476264953617 13 14 15 67.910717010498061 4.8299999237060556 16 17 109.50000000000001 1.2649999856948855 1.4100000262260439 18 7.5000000000000009 11.352224826812746 0.93819776177406322 36.500000000000007 4.5000000000000009 1.0000000180025095e-35 20.217991828918461 19.160714149475101 76.500000000000014
decision_type=2 2 2 2 1 2 2 1 2 1 1 1 1 2 2 2 2 2 2 2 1 2 1 1 2 2 2 2 1 2 2 2 2 2 1 2 2 2 1 1 2 2 1 1 1 2 2 1 1 2 2 2 1 2 2 2 2 2 2 2 2 2
left_child=2 3 6 11 8 9 19 14 58 17 15 26 34 43 27 24 -6 -4 60 38 -21 23 -23 56 -7 55 -2 -5 -19 -11 -24 -10 45 -17 -8 41 37 -18 39 -1 -41 -36 -15 44 46 -33 -14 48 50 -34 -22 -52 53 54 57 -12 -20 -30 -3 -60 61 -16
right_child=1 4 5 7 16 10 12 -9 31 29 25 -13 13 42 18 33 36 28 21 20 47 22 30 -25 -26 -27 -28 -29 52 -31 -32 32 49 -35 35 -37 -38 -39 -40 40 -42 -43 -44 -45 -46 -47 -48 -49 -50 -51 51 -53 -54 -55 -56 -57 -58 -59 59 -61 -62 -63
leaf_value=-0.35088754793121257 0.25212988740905434 1.0800732250515108 2.128727592263282 -0.0055040546556186301 0.71364671083052356 0.16717053288980641 1.3264094004618252 0.32472181618346507 2.0808889288430166 -0.1381294491230754 1.8160467105610949 0.084168327926361253 0.05277587649761907 0.025784878789324995 0.67357913248181323 1.6016332270507316 0.16358747341387539 -0.22173011614727051 0.79120864329949203 -0.47766048059178207 0.037792624616241041 0.25945970616760411 6.2221040936566316 0.67979451608035935 0.44792815847132916 0.22524260561109033 0.44441700628227415 1.5484313564135008 0.11593358112482594 0.012184573947002078 0.67094636304420774 1.2316843222421647 2.1009599288314469 0.13725641100200348 0.14658455845921137 2.3642914990481918 0.67396723709042283 1.3587492982075422 -0.45756317666720903 0.10352112253035872 0.87556512246259643 4.2505484709998056 -0.15982383733920896 -0.33493634560025498 -0.24039608752128974 2.2012764037789165 1.2439623144330783 -0.42003121404805804 -0.36409250726224179 4.0136092803168077 4.7244006177561175 1.5147111554112698 0.050048088209574973 -0.18888819660318021 0.94528944838140971 -0.01206318793777481 0.91129335982655657 0.68686971408690123 1.2104493047732579 1.6515706868895212 0.48297715515920514 3.0973338080178539
leaf_weight=557 5567 1194 185 433 1505 4608 51 1765 503 28361 75 4264 1687 4702 151 325 114 2761 504 62103 932 522 80 1338 1836 1934 3705 70 470 5262 1010 423 1093 128 570 30 714 882 1332 366 364 23 7646 31390 12819 206 83 34905 6746 341 34 181 9060 604 390 8226 909 184 293 251 2092 27
leaf_count=557 5567 1194 185 433 1505 4608 51 1765 503 28361 75 4264 1687 4702 151 325 114 2761 504 62103 932 522 80 1338 1836 1934 3705 70 470 5262 1010 423 1093 128 570 30 714 882 1332 366 364 23 7646 31390 12819 206 83 34905 6746 341 34 181 9060 604 390 8226 909 184 293 251 2092 27
internal_value=-0.00123552 0.008635 -0.00251592 0.00596626 0.0165986 -0.000173812 -0.00342182 0.00915009 0.0202898 -0.000998055 0.00210075 0.00387263 -0.00239242 -0.00248359 0.0104422 0.00424424 0.0115581 0.000671837 0.011041 -0.0039867 -0.0040696 0.0125796 0.00936104 0.0144656 0.00368249 0.000651536 0.00517022 0.00275348 0.000497809 -0.00167588 0.0123636 0.0233125 0.024714 0.0123289 0.00545322 0.00398876 0.0145322 0.0173896 -0.000666286 0.00209329 0.00582192 0.00267285 -0.00104794 -0.00286968 -0.00197375 0.0295787 0.0016573 -0.00345006 -0.00215571 0.0225802 0.00230337 0.0101163 0.00116828 0.00389626 0.00726054 -9.69775e-05 0.0177688 0.00432722 0.0159436 0.02 0.0080837 0.0160674
internal_weight=260886 29956 230930 22437 7519 64409 166521 8901 4304 47277 17132 13536 59001 58327 7136 6897 3215 13654 6633 107520 104901 4363 1612 2751 6444 10235 9272 503 13469 33623 1090 2566 2063 453 674 623 1710 996 2619 1287 730 593 12348 45979 14589 629 1770 42798 7893 1434 1147 215 10708 1648 1044 8301 1413 654 1738 544 2270 178
internal_count=260886 29956 230930 22437 7519 64409 166521 8901 4304 47277 17132 13536 59001 58327 7136 6897 3215 13654 6633 107520 104901 4363 1612 2751 6444 10235 9272 503 13469 33623 1090 2566 2063 453 674 623 1710 996 2619 1287 730 593 12348 45979 14589 629 1770 42798 7893 1434 1147 215 10708 1648 1044 8301 1413 654 1738 544 2270 178
cat_boundaries=0 1 3 5 7 9 10 12 14 16 17 18 20 21 23 24 26 27 29 31
cat_threshold=2147486208 3892423248 33925 811190928 102741 1612745216 100231 3761302128 33927 520 1132475834 224330 536905728 33924 3221260288 32768 4 2 302776513 275 4 943130640 199925 1 536877072 66064 1 268847616 16 35328 32772
is_linear=0
shrinkage=0.05


Tree=15
num_leaves=63
num_cat=16
split_feature=10 8 10 13 10 6 0 14 0 0 13 14 14 14 13 14 1 9 14 0 14 13 5 0 14 13 10 6 14 5 1 1 10 14 8 14 1 1 1 14 0 14 4 0 7 5 10 0 14 5 14 1 1 5 5 14 4 7 12 0 6 1
split_gain=1162.07 219.293 176.031 55.4038 47.5136 46.6998 41.5978 40.2385 26.4168 25.1381 21.8078 21.5159 17.1827 16.8719 16.4622 15.9054 20.187 16.0378 13.9773 11.7965 11.0509 10.6763 10.6215 10.5191 10.217 9.72528 9.58842 9.17003 7.98633 7.63314 7.62157 8.99508 7.56704 7.26275 7.31335 7.11284 7.08936 9.05139 6.58854 6.58173 6.52211 6.37913 6.19342 5.8773 5.84162 5.80058 5.69021 5.6563 5.62242 5.50453 5.49772 5.44212 5.26297 5.17224 5.12031 5.08444 5.05313 4.96737 4.9087 4.8203 4.65127 4.64864
threshold=25.928571701049808 47.500000000000007 14.785714149475099 8.6400690078735369 38.357141494750984 52.500000000000007 2.5000000000000004 0 2.5000000000000004 2.5000000000000004 4.1390352249145517 1 2 3 16.495109558105472 4 1.5000000000000002 87.500000000000014 5 2.5000000000000004 6 10.35992479324341 0.91461405158042919 2.5000000000000004 7 0.75941255688667308 59.071428298950202 77.500000000000014 8 1.0035963058471682 1.5000000000000002 8.5000000000000018 10.785714149475099 9 16.500000000000004 10 3.5000000000000004 8.5000000000000018 6.5000000000000009 11 6.5000000000000009 12 2.9500000476837163 3.5000000000000004 52.500000000000007 0.96197178959846508 10.500000000000002 6.5000000000000009 13 1.0205516815185549 14 6.5000000000000009 8.5000000000000018 0.99994540214538585 0.880780190229416 15 1.4100000262260439 72.500000000000014 21.305599212646488 2.5000000000000004 29.500000000000004 11.500000000000002
decision_type=2 2 2 2 2 2 2 1 2 2 2 1 1 1 2 1 2 2 1 2 1 2 2 2 1 2 2 2 1 2 2 2 2 1 2 1 2 2 2 1 2 1 2 2 2 2 2 2 1 2 1 2 2 2 2 1 2 2 2 2 2 2
left_child=2 4 3 8 9 24 13 14 10 28 25 23 -8 21 46 16 -7 59 40 42 -10 -4 -14 26 30 29 -6 58 -2 -1 -3 -32 54 -9 -35 -34 -25 38 -38 43 -11 -15 56 -13 -33 -22 51 50 -42 -31 -24 -5 -53 -39 -12 -49 -16 -19 -18 -17 -43 -45
right_child=1 5 6 7 11 15 12 33 20 18 32 39 22 41 19 17 27 57 -20 -21 45 -23 47 36 -26 -27 -28 -29 -30 49 31 44 35 34 -36 -37 37 53 -40 -41 48 60 -44 61 -46 -47 -48 55 -50 -51 -52 52 -54 -55 -56 -57 -58 -59 -60 -61 -62 -63
leaf_value=-0.37008347872193598 0.63007432853117296 0.32183498309068276 0.19926525323913727 0.19481847985278808 1.1536424468396349 0.14852903264081338 -0.12410611748716588 -0.27698216005888887 -0.43309405732091727 0.19055000439865299 0.6012641404020127 0.64966885742489022 1.5567750268589708 -0.034162026409652373 1.5421322222965552 1.3348923410868057 1.1455763383006929 2.0713474295637235 -0.04051681376865849 0.85194950495952537 0.046233866261060269 0.67846931958805878 -0.088191353603876865 0.4763021197209989 0.38695622019613951 -0.37309894762803658 4.3356124093241979 1.7723635161560958 0.39742646632109879 3.5381968395705337 0.95107556085392675 0.53871059756487827 0.10335469863200275 -0.14660337337215532 0.10040874855876834 -0.067439086823294497 0.63285533419531359 5.703962281611461 0.97147827103295536 0.16001978543152348 0.47269114884716529 0.085968161310125774 1.2624682749376626 0.30719209438060879 1.1422820982730837 -0.36965759667916043 -0.10425473183420762 -0.01018362325837239 0.28449715814460719 0.20635207996930838 0.062035500703997971 0.83088349550476581 0.46388136671573205 0.61332535733272153 -0.18083398183848992 0.24777119418083116 2.8849223397876216 3.3741801367416011 0.59498165789722413 1.3988876065724298 0.2410751495223587 0.9595651618804063
leaf_weight=4193 1732 255 3222 443 328 104 17989 7271 59554 6556 121 977 203 3032 29 1415 828 236 2798 442 990 1753 7163 661 569 20380 71 333 1814 62 1738 690 2480 5858 3367 5231 839 34 574 685 567 4609 58 1884 445 55928 489 1465 1039 191 6411 120 175 971 14049 1972 91 579 66 993 1589 175
leaf_count=4193 1732 255 3222 443 328 104 17989 7271 59554 6556 121 977 203 3032 29 1415 828 236 2798 442 990 1753 7163 661 569 20380 71 333 1814 62 1738 690 2480 5858 3367 5231 839 34 574 685 567 4609 58 1884 445 55928 489 1465 1039 191 6411 120 175 971 14049 1972 91 579 66 993 1589 175
internal_value=-0.00127289 0.00799239 -0.00247478 -0.00319499 0.00535476 0.0149309 0.000171226 -0.000589599 -0.00348786 0.00370674 -0.00248325 0.00867551 -0.000750363 0.00245512 0.00638934 0.0183202 0.0231879 0.0161878 0.00252281 0.0130645 -0.00389072 0.0047994 0.000379121 0.0115138 0.010756 -0.00349754 0.0191855 0.0251548 0.00736605 -0.00137877 0.0118738 0.0126471 -0.00133244 -0.00137405 -0.000441257 -7.19763e-05 0.010557 0.0118114 0.0143914 0.00597561 0.00356583 0.00118506 0.0239326 0.00698293 0.00918502 -0.00338919 0.00306846 0.000243665 0.0064259 0.00705533 -0.000215118 0.00584011 0.0111017 0.00818408 -0.00201835 0.00205557 0.0304167 0.0223006 0.0225168 0.014186 0.00210374 0.00549053
internal_weight=260886 29956 230930 181522 21705 8251 49408 18343 163179 14506 46707 7199 35203 14205 1847 4554 1331 3223 10960 620 116472 4975 17214 3478 3697 24826 399 1227 3546 4446 3128 2873 21881 16496 9225 7711 3079 2418 1413 3721 8162 9230 178 3036 1135 56918 1227 17011 1606 253 13574 738 295 1005 14170 3437 120 815 894 2408 6198 2059
internal_count=260886 29956 230930 181522 21705 8251 49408 18343 163179 14506 46707 7199 35203 14205 1847 4554 1331 3223 10960 620 116472 4975 17214 3478 3697 24826 399 1227 3546 4446 3128 2873 21881 16496 9225 7711 3079 2418 1413 3721 8162 9230 178 3036 1135 56918 1227 17011 1606 253 13574 738 295 1005 14170 3437 120 815 894 2408 6198 2059
cat_boundaries=0 1 3 5 7 8 10 12 14 16 18 20 22 24 26 28 30
cat_threshold=1073814064 3221228048 33024 3615634735 161832 1649445504 34199 2147483648 3895584880 38071 1134603578 224330 3892886016 32897 2551228496 135 353657027 14435 3040150024 172241 571056200 135 2239767559 153608 2281744384 1072 141328896 898 540885136 1027
is_linear=0
shrinkage=0.05


Tree=16
num_leaves=63
num_cat=25
split_feature=11 7 10 13 14 9 0 0 8 14 14 6 0 14 14 13 14 15 1 14 1 14 0 6 1 1 11 15 14 1 14 13 0 14 14 6 14 12 14 6 11 14 10 14 7 15 4 14 1 11 13 13 14 15 4 4 12 14 14 13 14 4
split_gain=1026.52 206.895 161.797 50.5958 49.4056 46.161 34.1796 29.0381 22.7064 17.1182 14.6432 13.9561 13.3863 13.0562 12.616 10.6037 10.3443 11.9897 10.1518 12.8209 9.99856 9.87018 9.47367 9.44714 9.46798 13.2676 9.4186 8.80509 11.8565 9.26371 11.3682 8.68052 8.3614 8.11454 8.03797 7.97803 7.91778 8.40146 7.59897 7.59148 7.53243 6.85271 6.52762 6.6644 5.57589 5.57383 5.49227 9.35417 5.85965 5.45477 5.45252 5.16132 5.01734 5.78771 5.92655 17.0384 5.0038 4.97308 4.93415 4.88636 4.61476 4.56078
threshold=24.196428298950199 48.500000000000007 14.785714149475099 4.5179684162139901 0 59.500000000000007 2.5000000000000004 2.5000000000000004 38.500000000000007 1 2 33.500000000000007 2.5000000000000004 3 4 8.6400690078735369 5 6 8.5000000000000018 7 3.5000000000000004 8 2.5000000000000004 77.500000000000014 8.5000000000000018 3.5000000000000004 67.910717010498061 9 10 9.5000000000000018 11 35.313692092895515 6.5000000000000009 12 13 67.500000000000014 14 24.958537101745609 15 27.500000000000004 9.7321429252624529 16 29.928571701049808 17 32.500000000000007 18 1.310000002384186 19 7.5000000000000009 1.0000000180025095e-35 3.4036239385604863 16.85551738739014 20 21 1.2649999856948855 1.4950000047683718 24.958537101745609 22 23 17.240824699401859 24 2.6750000715255742
decision_type=2 2 2 2 1 2 2 2 2 1 1 2 2 1 1 2 1 1 2 1 2 1 2 2 2 2 2 1 1 2 1 2 2 1 1 2 1 2 1 2 2 1 2 1 2 1 2 1 2 2 2 2 1 1 2 2 2 1 1 2 1 2
left_child=2 4 3 13 8 14 11 16 31 42 22 33 -6 -1 23 58 17 -5 20 -20 -10 -17 26 24 25 -3 -7 28 -15 30 50 39 59 -4 49 -21 37 -13 -22 -2 -18 -42 46 -44 -41 -35 47 48 -8 -31 -30 -28 53 54 -29 -56 -12 -48 -9 -24 -11 -36
right_child=1 5 6 7 12 10 9 15 18 60 56 36 -14 27 -16 21 40 -19 19 35 38 -23 32 -25 -26 -27 51 52 29 34 -32 -33 -34 45 61 -37 -38 -39 -40 44 41 -43 43 -45 -46 -47 57 -49 -50 -51 -52 -53 -54 -55 55 -57 -58 -59 -60 -61 -62 -63
leaf_value=-0.44116351493427453 0.21844102661830489 0.57280704700621421 0.01392761951996768 0.55347394773105918 0.35227712590436761 1.4652257253376142 -0.1122018718663373 -0.25399499474591675 0.41583564368577375 -0.19325195471928738 0.98984567331433149 0.63680696795548641 0.067226692044400391 -0.33428978617827093 0.57267900524709192 0.042083949858682031 -0.16733400788719477 3.3461298891327553 0.060993669542499698 0.56401103218955662 0.38905991289625258 -0.25985481532952676 1.1708273931292907 2.1261979205497878 0.56825546511646463 1.0161932079174139 2.3737449922571656 -0.91964292422803029 1.816072551856668 2.0271519928441104 -0.31814438649825916 1.9597619617115702 2.3061499030202834 -0.049831173100900912 0.71751309443014843 4.17318024382676 0.32536738846671781 1.7477993858386942 0.9300383396400751 0.29912347727604993 -0.078999017964874407 0.074385573986175943 0.69707802317106171 0.14893381132524636 0.48028972610523557 0.26325354013223545 -0.21443672396851021 0.049358629843883388 0.71696825338689341 -0.33157089232698572 0.45143235733129927 3.6481940556602206 -0.41392056844903502 -0.25722136441060928 2.0919512112411263 0.12285783457505595 0.29099389180070401 0.021022103975410628 -0.28972669458228251 1.523376553810265 -0.077459960018756768 -1.1544008312688476
leaf_weight=64304 3515 630 6184 129 2475 923 211 14408 1147 5796 705 638 7592 4109 1485 3398 10932 45 656 965 694 9068 152 401 1085 1476 74 173 106 124 1387 196 374 981 212 93 1759 52 1620 2526 5612 6859 325 544 2317 4154 2298 4783 618 33 168 470 26209 879 75 391 97 4478 31875 655 15128 118
leaf_count=64304 3515 630 6184 129 2475 923 211 14408 1147 5796 705 638 7592 4109 1485 3398 10932 45 656 965 694 9068 152 401 1085 1476 74 173 106 124 1387 196 374 981 212 93 1759 52 1620 2526 5612 6859 325 544 2317 4154 2298 4783 618 33 168 470 26209 879 75 391 97 4478 31875 655 15128 118
internal_value=-0.00131161 0.00702859 -0.00249106 -0.0031765 0.00463397 0.0137112 9.08245e-05 -0.00226211 0.00658381 -0.000756416 0.0181739 0.00219422 0.00196636 -0.00394239 0.0106785 -0.00285699 -0.000779787 0.0110326 0.0092029 0.00605601 0.0107613 -0.00156265 0.0200188 0.0122959 0.0114212 0.0133761 0.0227778 -0.00314526 -0.00145197 0.001557 -0.000213728 0.00500701 0.0167612 0.00145375 0.00762834 0.00941947 0.00561658 0.0101429 0.0126534 0.0047631 -0.000871953 -3.24765e-05 0.000649354 0.00483889 0.00604687 0.00292031 0.000355988 0.00151283 0.0063826 0.0165569 0.00890845 0.0279963 -0.00352851 -0.000713352 0.00290297 0.00583691 0.0116872 -0.000602126 -0.00320561 0.0138971 -0.0016466 0.00279412
internal_weight=260886 32323 228563 180614 23796 8527 47949 82326 13729 34181 3450 13768 10067 98288 5077 58749 23577 174 5175 1714 3461 12466 2648 3592 3191 2106 1467 33984 6257 2148 1661 8554 1181 11319 487 1058 2449 690 2314 8358 23403 12471 13257 869 4843 5135 12388 5612 829 157 274 544 27727 1518 639 466 802 6776 46283 807 20924 330
internal_count=260886 32323 228563 180614 23796 8527 47949 82326 13729 34181 3450 13768 10067 98288 5077 58749 23577 174 5175 1714 3461 12466 2648 3592 3191 2106 1467 33984 6257 2148 1661 8554 1181 11319 487 1058 2449 690 2314 8358 23403 12471 13257 869 4843 5135 12388 5612 829 157 274 544 27727 1518 639 466 802 6776 46283 807 20924 330
cat_boundaries=0 2 4 6 8 10 11 12 14 16 17 19 21 23 24 26 28 30 32 33 35 37 38 40 42 44
cat_threshold=3758205440 33797 674876112 99671 2684357120 1 1137718714 224330 3221785088 32897 512 4 536905728 33796 1111693880 18181 1 738197573 37156 2048 16 2374726935 161832 271057408 134453760 1220 73728 1029 1182975427 11821 134269504 1028 4 134742528 256 2147615232 640 2 134742144 256 944833416 37973 2239897603 10248
is_linear=0
shrinkage=0.05


Tree=17
num_leaves=63
num_cat=23
split_feature=10 10 11 0 0 0 13 14 14 14 14 14 14 13 11 0 14 15 15 14 1 11 1 10 13 5 4 15 5 15 14 15 14 0 1 15 14 14 5 2 1 1 11 9 1 1 9 1 11 14 1 2 14 5 1 14 14 15 1 0 1 1
